{"learner":{"attributes":{"scikit_learn":"{\"_estimator_type\": \"regressor\"}"},"feature_names":["air_temperature","humidity","pressure","track_temperature","wind_speed","lap_number","is_pit_out_lap","session_type_qualifying","session_type_race"],"feature_types":["float","float","float","float","float","int","i","i","i"],"gradient_booster":{"model":{"gbtree_model_param":{"num_parallel_tree":"1","num_trees":"100"},"iteration_indptr":[0,1,2,3,4,5,6,7,8,9,10,11,12,13,14,15,16,17,18,19,20,21,22,23,24,25,26,27,28,29,30,31,32,33,34,35,36,37,38,39,40,41,42,43,44,45,46,47,48,49,50,51,52,53,54,55,56,57,58,59,60,61,62,63,64,65,66,67,68,69,70,71,72,73,74,75,76,77,78,79,80,81,82,83,84,85,86,87,88,89,90,91,92,93,94,95,96,97,98,99,100],"tree_info":[0,0,0,0,0,0,0,0,0,0,0,0,0,0,0,0,0,0,0,0,0,0,0,0,0,0,0,0,0,0,0,0,0,0,0,0,0,0,0,0,0,0,0,0,0,0,0,0,0,0,0,0,0,0,0,0,0,0,0,0,0,0,0,0,0,0,0,0,0,0,0,0,0,0,0,0,0,0,0,0,0,0,0,0,0,0,0,0,0,0,0,0,0,0,0,0,0,0,0,0],"trees":[{"base_weights":[-3.404573E-6,-2.4282534E0,2.5777554E1,2.654738E0,-5.330073E0,3.3741467E1,2.0100615E1,-1.065885E1,6.0600195E0,-9.228583E0,-2.9437206E0,2.2023527E1,4.4542324E1,1.5800165E1,2.7473173E1,-3.2490482E0,-9.238811E0,2.1211792E1,1.6925942E0,-3.5737329E0,-1.041276E1,-1.0345598E0,-4.834076E0,1.7377592E1,4.200434E1,4.7247196E1,2.3025656E1,3.9611073E1,1.4028524E1,1.33933E1,4.5191917E1,-1.1023348E1,-7.5944734E0,1.2095576E1,2.899703E1,-5.2034026E-1,4.091004E0,4.646738E-1,-4.6375976E0,-8.463806E0,-1.3701035E1,-3.631645E0,4.8134025E-2,-6.8291817E0,-3.9704835E0,4.0719837E1,1.5019294E1,1.0573867E1,3.1879581E1,9.664665E0,3.673279E1,6.240184E0,1.6382261E1,8.389138E0,1.3883833E0,2.2856464E1,7.2906814E0,2.2362154E1,6.7955766E0,4.7272236E1,2.4490163E0,-2.2520065E0,-2.0319438E0,-1.1610772E1,-6.529254E0,1.1527269E1,2.8094373E0,2.7329075E1,7.3661537E0,-2.5567636E0,8.600794E-1,-1.5245951E0,5.7964115E0,9.568849E-1,-3.1962804E-2,-5.3041244E0,3.7104552E0,-7.3608913E0,-1.1147261E1,-1.2960848E1,-3.2109907E0,-1.559837E0,-1.2401357E1,-3.308806E0,8.0336547E-1,-4.7602053E0,-1.3768158E1,-5.6877346E0,-2.81988E0,8.557418E0,1.156986E0,2.17388E1,1.0948069E1,3.3570553E1,2.2599034E0,2.422821E1,9.854914E0,2.2295557E1,1.3235795E1,1.0724809E1,3.6708015E1,5.4933558E0,8.629321E0,2.1829484E0,3.6796547E1,4.8870683E0,8.714973E0,9.785786E0,3.3084457E1,-2.5511963E0,-2.0870655E0,-1.6590035E0,-6.783423E-1,1.7291352E0,2.3689756E0,4.5634284E0,6.4057593E0,-8.9683676E-1,2.2317961E-1,5.873796E-1,4.6979334E-2,-3.954316E-1,2.1137348E-1,1.6686134E0,4.9311534E-1,1.3613866E-1,2.648633E-1,2.7121594E-2,-4.1072786E-2,-6.084138E-1,-1.2857836E0,4.893796E-1,9.866415E-1,-1.7878506E0,-1.1107897E0,-2.0106978E0,-2.5858872E0,-3.1018164E0,-2.5264132E0,2.2649305E-1,-6.4648646E-1,-3.044372E0,-2.1431644E0,-4.2870155E-1,-1.0020288E0,3.251771E-1,-9.423457E-2,-1.1243247E0,-6.132356E-1,-2.6006217E0,-2.9493983E0,-6.26861E-1,-2.769752E0,-3.4634647E-1,-7.457196E-1,2.1666744E0,6.4598336E0,1.9079993E0,8.267003E0,7.2682357E0,4.9188886E0,5.2731414E0,1.3898594E0,6.274866E0,1.3883833E0,1.662982E0,2.8828301E0,1.9472466E0,3.9261568E0,9.259711E0,6.429578E0,2.142681E0,5.430894E-1,1.9629345E0,7.808656E-1,1.0015719E1,6.2568717E0,1.6744922E0,6.7211545E-1,1.980043E0,9.6840477E-1,4.3895555E0,8.163903E0],"categories":[],"categories_nodes":[],"categories_segments":[],"categories_sizes":[],"default_left":[0,0,0,0,0,0,0,0,0,0,0,0,0,0,0,0,0,0,0,0,0,0,0,0,0,0,0,0,0,0,0,0,0,0,0,0,0,0,0,0,0,0,0,0,0,0,0,0,0,0,0,0,0,0,0,0,0,0,0,0,0,0,0,0,0,0,0,0,0,0,0,0,0,0,0,0,0,0,0,0,0,0,0,0,0,0,0,0,0,0,0,0,0,0,0,0,0,0,0,0,0,0,0,0,0,0,0,0,0,0,0,0,0,0,0,0,0,0,0,0,0,0,0,0,0,0,0,0,0,0,0,0,0,0,0,0,0,0,0,0,0,0,0,0,0,0,0,0,0,0,0,0,0,0,0,0,0,0,0,0,0,0,0,0,0,0,0,0,0,0,0,0,0,0,0,0,0,0,0,0,0,0,0],"id":0,"left_children":[1,3,5,7,9,11,13,15,17,19,21,23,25,27,29,-1,31,33,35,37,39,41,43,45,47,49,51,53,55,57,59,61,63,65,67,69,71,73,75,77,79,81,83,85,87,89,91,-1,93,-1,95,-1,97,-1,-1,99,101,103,105,107,-1,-1,-1,109,111,113,-1,115,-1,117,119,121,123,125,127,129,131,133,135,137,-1,139,141,143,145,147,149,151,153,-1,-1,155,157,159,-1,161,-1,163,165,167,169,171,173,-1,175,177,179,-1,181,-1,-1,-1,-1,-1,-1,-1,-1,-1,-1,-1,-1,-1,-1,-1,-1,-1,-1,-1,-1,-1,-1,-1,-1,-1,-1,-1,-1,-1,-1,-1,-1,-1,-1,-1,-1,-1,-1,-1,-1,-1,-1,-1,-1,-1,-1,-1,-1,-1,-1,-1,-1,-1,-1,-1,-1,-1,-1,-1,-1,-1,-1,-1,-1,-1,-1,-1,-1,-1,-1,-1,-1,-1,-1],"loss_changes":[1.6308334E6,3.5122456E5,1.00729125E5,3.9240678E5,1.40991E5,1.169765E5,4.116325E4,1.3835625E4,4.5603688E5,3.850025E4,3.393396E4,4.0950516E4,2.7080812E4,3.4499547E4,1.1964297E5,0E0,4.0478906E3,1.0908794E5,2.8402688E4,4.289879E3,3.0376594E4,1.3159623E4,8.1138594E3,1.9535977E4,7.5550156E3,3.0790625E3,2.5303008E3,4.056211E3,4.5931344E4,1.582502E4,1.4020156E4,2.3164062E1,3.0729766E3,6.277656E2,9.8515625E3,7.8283535E3,2.4602285E4,5.1120644E1,4.4153984E3,8.767219E3,2.874125E3,2.499959E4,8.37918E3,2.0406938E4,6.5043516E3,2.1357148E3,8.899125E3,0E0,1.2214844E3,0E0,5.706672E3,0E0,3.1889844E2,0E0,0E0,5.5900453E4,1.01363086E3,1.8435336E4,5.325288E2,3.0821875E3,0E0,0E0,0E0,7.284375E1,3.2073184E3,4.073672E2,0E0,1.3879344E4,0E0,7.968611E3,2.1546392E3,7.018855E2,1.668993E4,9.754112E0,3.0788298E0,1.8429062E3,7.908502E1,6.0023203E3,1.5639453E3,9.359844E2,0E0,5.0246523E3,1.0871992E3,1.1926782E3,2.829169E3,1.5879551E3,5.3121094E1,2.7526066E4,1.9494287E3,0E0,0E0,1.4045754E4,8.590936E3,1.5072656E2,0E0,7.031846E2,0E0,1.1761245E3,1.9312988E1,1.3936309E3,5.334125E3,2.740565E3,1.3674727E3,0E0,2.0939766E3,4.0281775E2,3.0552246E2,0E0,1.1715312E3,0E0,0E0,0E0,0E0,0E0,0E0,0E0,0E0,0E0,0E0,0E0,0E0,0E0,0E0,0E0,0E0,0E0,0E0,0E0,0E0,0E0,0E0,0E0,0E0,0E0,0E0,0E0,0E0,0E0,0E0,0E0,0E0,0E0,0E0,0E0,0E0,0E0,0E0,0E0,0E0,0E0,0E0,0E0,0E0,0E0,0E0,0E0,0E0,0E0,0E0,0E0,0E0,0E0,0E0,0E0,0E0,0E0,0E0,0E0,0E0,0E0,0E0,0E0,0E0,0E0,0E0,0E0,0E0,0E0,0E0,0E0,0E0,0E0,0E0],"parents":[2147483647,0,0,1,1,2,2,3,3,4,4,5,5,6,6,7,7,8,8,9,9,10,10,11,11,12,12,13,13,14,14,16,16,17,17,18,18,19,19,20,20,21,21,22,22,23,23,24,24,25,25,26,26,27,27,28,28,29,29,30,30,31,31,32,32,33,33,34,34,35,35,36,36,37,37,38,38,39,39,40,40,41,41,42,42,43,43,44,44,45,45,46,46,48,48,50,50,52,52,55,55,56,56,57,57,58,58,59,59,63,63,64,64,65,65,67,67,69,69,70,70,71,71,72,72,73,73,74,74,75,75,76,76,77,77,78,78,79,79,81,81,82,82,83,83,84,84,85,85,86,86,87,87,88,88,91,91,92,92,93,93,95,95,97,97,98,98,99,99,100,100,101,101,102,102,104,104,105,105,106,106,108,108],"right_children":[2,4,6,8,10,12,14,16,18,20,22,24,26,28,30,-1,32,34,36,38,40,42,44,46,48,50,52,54,56,58,60,62,64,66,68,70,72,74,76,78,80,82,84,86,88,90,92,-1,94,-1,96,-1,98,-1,-1,100,102,104,106,108,-1,-1,-1,110,112,114,-1,116,-1,118,120,122,124,126,128,130,132,134,136,138,-1,140,142,144,146,148,150,152,154,-1,-1,156,158,160,-1,162,-1,164,166,168,170,172,174,-1,176,178,180,-1,182,-1,-1,-1,-1,-1,-1,-1,-1,-1,-1,-1,-1,-1,-1,-1,-1,-1,-1,-1,-1,-1,-1,-1,-1,-1,-1,-1,-1,-1,-1,-1,-1,-1,-1,-1,-1,-1,-1,-1,-1,-1,-1,-1,-1,-1,-1,-1,-1,-1,-1,-1,-1,-1,-1,-1,-1,-1,-1,-1,-1,-1,-1,-1,-1,-1,-1,-1,-1,-1,-1,-1,-1,-1,-1],"split_conditions":[1E0,8E0,5.1E1,3E0,2.46E1,3.9E1,2.46E1,1.62E1,4E0,3.6E1,1.4E1,3.16E1,1.7E1,1.62E1,5.3E1,-3.2490482E0,2.8E1,2.66E1,6E0,1E1,1.62E1,3.9E1,3.9E1,1.62E1,9E0,1.5E1,1.8E1,2E1,6E0,6E0,1.8E1,2.66E1,3.9E1,6.5E1,5.4E1,5E0,2.29E1,2.39E1,2E1,1.6E1,1.8E1,2.4E1,9E0,2.4E1,2.91E1,2E1,7E0,1.0573867E1,1.8E1,9.664665E0,1.6E1,6.240184E0,2.8E1,8.389138E0,1.3883833E0,3E0,1.1E1,3E0,1.2E1,1.5E1,2.4490163E0,-2.2520065E0,-2.0319438E0,3.16E1,3.14E1,1.4E1,2.8094373E0,3.14E1,7.3661537E0,2.91E1,3.6E1,1.62E1,7E0,9E0,9E0,1.3E1,2.39E1,1.2E1,1.9E1,9E0,-3.2109907E0,1E1,1E1,5.1E1,5.1E1,2.66E1,1.8E1,2.86E1,1.7E1,8.557418E0,1.156986E0,3E0,2E1,1.5E1,2.2599034E0,4.9E1,9.854914E0,2E1,1.9E1,2E0,4E0,8E0,1.7E1,2.1829484E0,4E0,8E0,1.7E1,9.785786E0,1.6E1,-2.5511963E0,-2.0870655E0,-1.6590035E0,-6.783423E-1,1.7291352E0,2.3689756E0,4.5634284E0,6.4057593E0,-8.9683676E-1,2.2317961E-1,5.873796E-1,4.6979334E-2,-3.954316E-1,2.1137348E-1,1.6686134E0,4.9311534E-1,1.3613866E-1,2.648633E-1,2.7121594E-2,-4.1072786E-2,-6.084138E-1,-1.2857836E0,4.893796E-1,9.866415E-1,-1.7878506E0,-1.1107897E0,-2.0106978E0,-2.5858872E0,-3.1018164E0,-2.5264132E0,2.2649305E-1,-6.4648646E-1,-3.044372E0,-2.1431644E0,-4.2870155E-1,-1.0020288E0,3.251771E-1,-9.423457E-2,-1.1243247E0,-6.132356E-1,-2.6006217E0,-2.9493983E0,-6.26861E-1,-2.769752E0,-3.4634647E-1,-7.457196E-1,2.1666744E0,6.4598336E0,1.9079993E0,8.267003E0,7.2682357E0,4.9188886E0,5.2731414E0,1.3898594E0,6.274866E0,1.3883833E0,1.662982E0,2.8828301E0,1.9472466E0,3.9261568E0,9.259711E0,6.429578E0,2.142681E0,5.430894E-1,1.9629345E0,7.808656E-1,1.0015719E1,6.2568717E0,1.6744922E0,6.7211545E-1,1.980043E0,9.6840477E-1,4.3895555E0,8.163903E0],"split_indices":[6,5,1,5,0,1,0,0,5,1,5,0,5,0,1,0,0,0,5,5,0,1,1,0,5,5,5,5,5,5,5,0,1,1,1,5,0,0,5,5,5,1,5,1,0,5,5,0,5,0,5,0,0,0,0,5,5,5,5,5,0,0,0,0,0,0,0,0,0,0,1,0,5,5,5,5,0,5,5,5,0,5,5,1,1,0,5,0,5,0,0,5,5,5,0,1,0,5,5,5,5,5,5,0,5,5,5,0,5,0,0,0,0,0,0,0,0,0,0,0,0,0,0,0,0,0,0,0,0,0,0,0,0,0,0,0,0,0,0,0,0,0,0,0,0,0,0,0,0,0,0,0,0,0,0,0,0,0,0,0,0,0,0,0,0,0,0,0,0,0,0,0,0,0,0,0,0,0,0,0,0,0,0],"split_type":[0,0,0,0,0,0,0,0,0,0,0,0,0,0,0,0,0,0,0,0,0,0,0,0,0,0,0,0,0,0,0,0,0,0,0,0,0,0,0,0,0,0,0,0,0,0,0,0,0,0,0,0,0,0,0,0,0,0,0,0,0,0,0,0,0,0,0,0,0,0,0,0,0,0,0,0,0,0,0,0,0,0,0,0,0,0,0,0,0,0,0,0,0,0,0,0,0,0,0,0,0,0,0,0,0,0,0,0,0,0,0,0,0,0,0,0,0,0,0,0,0,0,0,0,0,0,0,0,0,0,0,0,0,0,0,0,0,0,0,0,0,0,0,0,0,0,0,0,0,0,0,0,0,0,0,0,0,0,0,0,0,0,0,0,0,0,0,0,0,0,0,0,0,0,0,0,0,0,0,0,0,0,0],"sum_hessian":[2.6052E4,2.381E4,2.242E3,8.653E3,1.5157E4,9.31E2,1.311E3,1.762E3,6.891E3,5.754E3,9.403E3,4.48E2,4.83E2,8.3E2,4.81E2,3.55E2,1.407E3,1.541E3,5.35E3,9.97E2,4.757E3,4.679E3,4.724E3,3.65E2,8.3E1,4.28E2,5.5E1,5.6E1,7.74E2,2.69E2,2.12E2,6.72E2,7.35E2,7.11E2,8.3E2,2.783E3,2.567E3,2.08E2,7.89E2,2.989E3,1.768E3,1.376E3,3.303E3,1.425E3,3.299E3,3.2E1,3.33E2,3.8E1,4.5E1,3.85E2,4.3E1,2.3E1,3.2E1,5.2E1,4E0,3.34E2,4.4E2,1.13E2,1.56E2,1.99E2,1.3E1,5.18E2,1.54E2,1.52E2,5.83E2,5.56E2,1.55E2,6.88E2,1.42E2,1.124E3,1.659E3,5.98E2,1.969E3,1.04E2,1.04E2,7.31E2,5.8E1,2.121E3,8.68E2,1.35E3,4.18E2,1.114E3,2.62E2,6.06E2,2.697E3,1.099E3,3.26E2,1.322E3,1.977E3,3E1,2E0,1.24E2,2.09E2,4.1E1,4E0,2.3E1,2E1,9E0,2.3E1,1.79E2,1.55E2,1.9E2,2.5E2,6.4E1,4.9E1,8E1,7.6E1,1.76E2,2.3E1,7.2E1,8E1,3.72E2,2.11E2,5.8E1,4.98E2,3.54E2,3.34E2,7.37E2,3.87E2,3.83E2,1.276E3,5.09E2,8.9E1,1.115E3,8.54E2,6.1E1,4.3E1,5.3E1,5.1E1,2.44E2,4.87E2,3E1,2.8E1,1.13E3,9.91E2,5.42E2,3.26E2,1.49E2,1.201E3,4.27E2,6.87E2,9.5E1,1.67E2,3.61E2,2.45E2,1.639E3,1.058E3,7.27E2,3.72E2,1.91E2,1.35E2,1.008E3,3.14E2,9.01E2,1.076E3,6.2E1,6.2E1,2.01E2,8E0,2.9E1,1.2E1,2E1,3E0,5E0,4E0,6E0,1.7E1,1.63E2,1.6E1,4.7E1,1.08E2,6.5E1,1.25E2,1.99E2,5.1E1,1.2E1,3.7E1,2.3E1,5.7E1,5.7E1,1.9E1,1.1E1,1.2E1],"tree_param":{"num_deleted":"0","num_feature":"9","num_nodes":"183","size_leaf_vector":"1"}},{"base_weights":[6.184105E-3,3.897898E0,-2.9823842E0,6.5790147E-1,4.1652856E0,-1.1537989E0,-3.705329E0,7.8827125E-1,4.3364277E0,-1.2998848E0,-1.1438161E-1,-3.5680513E0,-4.067436E0,9.1353554E-1,4.2574153E0,-1.4779688E0,-1.1194115E0,-3.8908057E0,-3.4300163E0,-7.856947E-1,-8.2677805E-1,8.276207E-1,8.9878255E-1,-2.4094513E-1,-3.5067484E-1,-2.3647554E-1,-2.1109612E-1,-8.2101214E-1,-7.355265E-1,-6.916987E-1,-6.593419E-1],"categories":[],"categories_nodes":[],"categories_segments":[],"categories_sizes":[],"default_left":[0,0,0,0,0,0,0,0,0,0,0,0,0,0,0,0,0,0,0,0,0,0,0,0,0,0,0,0,0,0,0],"id":1,"left_children":[1,3,5,-1,7,9,11,-1,13,15,-1,17,19,-1,21,23,25,27,29,-1,-1,-1,-1,-1,-1,-1,-1,-1,-1,-1,-1],"loss_changes":[3.03025E5,1.8273125E3,1.9477531E4,0E0,2.8404688E2,3.5432666E2,5.1046875E2,0E0,6.175E1,1.0562695E2,0E0,3.281953E2,1.0503906E1,0E0,7.528906E1,1.24086426E2,5.442383E0,8.944922E1,9.015625E0,0E0,0E0,0E0,0E0,0E0,0E0,0E0,0E0,0E0,0E0,0E0,0E0],"parents":[2147483647,0,0,1,1,2,2,4,4,5,5,6,6,8,8,9,9,11,11,12,12,14,14,15,15,16,16,17,17,18,18],"right_children":[2,4,6,-1,8,10,12,-1,14,16,-1,18,20,-1,22,24,26,28,30,-1,-1,-1,-1,-1,-1,-1,-1,-1,-1,-1,-1],"split_conditions":[1.0089E3,1.0046E3,3.6E1,6.5790147E-1,3.61E1,1.0198E3,2.9E0,7.8827125E-1,1.0066E3,1.7E1,-1.1438161E-1,8E-1,1.0113E3,9.1353554E-1,1.007E3,1.4E1,2.4E1,3.9E1,7.7E1,-7.856947E-1,-8.2677805E-1,8.276207E-1,8.9878255E-1,-2.4094513E-1,-3.5067484E-1,-2.3647554E-1,-2.1109612E-1,-8.2101214E-1,-7.355265E-1,-6.916987E-1,-6.593419E-1],"split_indices":[2,2,1,0,3,2,4,0,2,1,0,4,2,0,2,1,1,1,1,0,0,0,0,0,0,0,0,0,0,0,0],"split_type":[0,0,0,0,0,0,0,0,0,0,0,0,0,0,0,0,0,0,0,0,0,0,0,0,0,0,0,0,0,0,0],"sum_hessian":[2.6052E4,1.1316E4,1.4736E4,3.459E3,7.857E3,4.176E3,1.056E4,3.414E3,4.443E3,3.337E3,8.39E2,7.665E3,2.895E3,1.117E3,3.326E3,1.676E3,1.661E3,2.288E3,5.377E3,9.56E2,1.939E3,2.223E3,1.103E3,8.44E2,8.32E2,8.28E2,8.33E2,1.132E3,1.156E3,4.41E3,9.67E2],"tree_param":{"num_deleted":"0","num_feature":"9","num_nodes":"31","size_leaf_vector":"1"}},{"base_weights":[4.886543E-3,2.7164383E0,-7.1202054E0,7.1437964E0,-8.478107E-1,-2.455481E0,-5.713847E0,9.360276E0,-4.384546E0,6.828079E-3,-5.0446754E0,8.4373075E-1,-6.718188E0,1.979701E0,9.222889E0,-3.2376149E0,-4.6622663E0,1.054857E0,-2.6304243E0,-3.4246013E0,-2.9125364E0,-8.560917E0,-4.314741E0,9.163436E0,1.9261236E0,-5.458458E-1,-7.4814606E-1,-4.300537E0,-1.1525013E0,2.8423185E0,-2.1776365E-1,-6.8470197E0,9.9052615E-2,-6.571504E-1,-7.125168E-1,-1.9565448E0,-7.6671023E0,-6.6822276E0,6.900707E-1,1.8716697E0,1.7793913E0,-7.890054E-1,-8.9480096E-1,2.5186179E0,3.317251E0,-6.640348E-1,2.0409179E0,-4.365647E0,-2.7743528E0,-1.266025E0,1.2221395E0,-2.0412953E0,-1.4188274E0,-4.9281244E0,-1.6744097E0,4.894422E-1,5.317456E-1,6.3767666E-1,6.883427E-1,1.0976609E0,1.698678E-1,-1.0180373E0,-8.360185E-1,3.2147673E-1,-2.7734096E0,3.9080814E-1,1.6836672E-1,-1.6980866E0,6.1915654E-1],"categories":[],"categories_nodes":[],"categories_segments":[],"categories_sizes":[],"default_left":[0,0,0,0,0,0,0,0,0,0,0,0,0,0,0,0,0,0,0,0,0,0,0,0,0,0,0,0,0,0,0,0,0,0,0,0,0,0,0,0,0,0,0,0,0,0,0,0,0,0,0,0,0,0,0,0,0,0,0,0,0,0,0,0,0,0,0,0,0],"id":2,"left_children":[1,3,5,7,9,-1,11,13,15,17,19,-1,21,-1,23,25,27,29,31,33,-1,35,37,39,-1,-1,-1,41,-1,43,45,47,49,-1,-1,-1,51,53,-1,-1,-1,-1,-1,55,57,-1,59,61,-1,63,65,-1,-1,67,-1,-1,-1,-1,-1,-1,-1,-1,-1,-1,-1,-1,-1,-1,-1],"loss_changes":[5.0336478E5,2.9781012E5,5.201997E4,2.1511503E5,3.7503652E4,0E0,5.6340656E4,4.3075E2,4.174629E2,2.4015682E4,2.7227895E4,0E0,2.2670062E4,0E0,4.840625E1,5.8338867E1,4.0942383E2,1.4145082E4,2.8439666E4,1.728125E1,0E0,3.0930781E3,4.0963676E4,1.7346875E2,0E0,0E0,0E0,3.322754E1,0E0,3.8920508E2,2.54645E4,1.686495E4,2.3027314E3,0E0,0E0,0E0,2.371961E3,5.018492E3,0E0,0E0,0E0,0E0,0E0,8.921875E0,5.7871094E0,0E0,8.63411E3,7.538574E1,0E0,2.4571236E4,2.2771228E2,0E0,0E0,2.4036537E4,0E0,0E0,0E0,0E0,0E0,0E0,0E0,0E0,0E0,0E0,0E0,0E0,0E0,0E0,0E0],"parents":[2147483647,0,0,1,1,2,2,3,3,4,4,6,6,7,7,8,8,9,9,10,10,12,12,14,14,15,15,16,16,17,17,18,18,19,19,21,21,22,22,23,23,27,27,29,29,30,30,31,31,32,32,36,36,37,37,43,43,44,44,46,46,47,47,49,49,50,50,53,53],"right_children":[2,4,6,8,10,-1,12,14,16,18,20,-1,22,-1,24,26,28,30,32,34,-1,36,38,40,-1,-1,-1,42,-1,44,46,48,50,-1,-1,-1,52,54,-1,-1,-1,-1,-1,56,58,-1,60,62,-1,64,66,-1,-1,68,-1,-1,-1,-1,-1,-1,-1,-1,-1,-1,-1,-1,-1,-1,-1],"split_conditions":[1E0,1.0089E3,1.62E1,1E0,2.66E1,-2.455481E0,2.33E1,2.8E1,2.8E1,1E0,1E0,8.4373075E-1,1.0089E3,1.979701E0,1.0073E3,2.69E1,1.007E3,1.62E1,2.33E1,2.91E1,-2.9125364E0,1.0056E3,2.66E1,1.0066E3,1.9261236E0,-5.458458E-1,-7.4814606E-1,1.0023E3,-1.1525013E0,1.46E1,2.33E1,1.62E1,2.46E1,-6.571504E-1,-7.125168E-1,-1.9565448E0,2.8E1,2.46E1,6.900707E-1,1.8716697E0,1.7793913E0,-7.890054E-1,-8.9480096E-1,1.43E1,1.0101E3,-6.640348E-1,2.43E1,1.4E1,-2.7743528E0,2.43E1,2.6E1,-2.0412953E0,-1.4188274E0,2.43E1,-1.6744097E0,4.894422E-1,5.317456E-1,6.3767666E-1,6.883427E-1,1.0976609E0,1.698678E-1,-1.0180373E0,-8.360185E-1,3.2147673E-1,-2.7734096E0,3.9080814E-1,1.6836672E-1,-1.6980866E0,6.1915654E-1],"split_indices":[8,2,0,7,0,0,0,0,0,7,7,0,2,0,2,0,2,0,0,0,0,2,0,2,0,0,0,2,0,0,0,0,0,0,0,0,0,0,0,0,0,0,0,0,2,0,0,0,0,0,0,0,0,0,0,0,0,0,0,0,0,0,0,0,0,0,0,0,0],"split_type":[0,0,0,0,0,0,0,0,0,0,0,0,0,0,0,0,0,0,0,0,0,0,0,0,0,0,0,0,0,0,0,0,0,0,0,0,0,0,0,0,0,0,0,0,0,0,0,0,0,0,0,0,0,0,0,0,0,0,0,0,0,0,0,0,0,0,0,0,0],"sum_hessian":[2.6052E4,1.8871E4,7.181E3,8.416E3,1.0455E4,1.537E3,5.644E3,7.059E3,1.357E3,8.687E3,1.768E3,5.18E2,5.126E3,1.421E3,5.638E3,2.67E2,1.09E3,6.217E3,2.47E3,1.512E3,2.56E2,2.9E3,2.226E3,4.941E3,6.97E2,1.36E2,1.31E2,8.24E2,2.66E2,2.585E3,3.632E3,9.7E2,1.5E3,7.66E2,7.46E2,1.221E3,1.679E3,1.706E3,5.2E2,2.834E3,2.107E3,2.78E2,5.46E2,1.541E3,1.044E3,1.53E3,2.102E3,7.18E2,2.52E2,6.77E2,8.23E2,3.06E2,1.373E3,8.39E2,8.67E2,1.033E3,5.08E2,5.26E2,5.18E2,5.39E2,1.563E3,1.41E2,5.77E2,5.52E2,1.25E2,2.8E2,5.43E2,5.81E2,2.58E2],"tree_param":{"num_deleted":"0","num_feature":"9","num_nodes":"69","size_leaf_vector":"1"}},{"base_weights":[3.3912368E-3,4.4168015E0,-2.5946007E0,-5.1077385E0,7.0636735E0,-2.361254E-2,-4.5809174E0,1.9769137E0,-7.3628187E0,1.8025944E1,4.056639E0,1.315477E0,-3.7503784E0,-3.8970385E0,-6.860182E0,-4.430409E0,-1.5813705E1,2.0833359E1,7.2662206E0,5.081843E0,-8.892453E-1,2.008309E0,-3.7611597E0,-4.0710526E0,-2.6008232E0,-4.470655E0,-1.8517908E0,-6.1486616E0,-1.3454148E1,-7.4989E0,-2.7260842E0,-1.4662503E1,-2.0203583E1,2.7914278E1,1.4310684E1,4.365344E0,8.178355E0,6.7764716E0,3.5845969E0,-6.5684924E0,6.6894507E0,2.9703786E0,-2.2496702E-2,-1.0457768E1,-2.4070766E0,-2.6986518E0,-4.6956553E0,-5.648241E0,-2.1949472E-1,-3.6117976E0,-6.31939E0,-3.3070495E0,1.8633275E0,-4.967692E0,-1.0377077E1,-1.210818E1,-3.8243053E0,1.8383546E-2,-8.614356E0,-1.7473443E0,-1.6735891E0,-4.9476786E0,-1.417531E1,-3.217491E0,-4.7478776E0,4.4852114E0,3.1468548E1,1.2608397E1,1.6397799E1,5.234625E-1,9.551876E-1,7.313269E0,9.957082E0,5.215782E0,8.377942E0,-9.208772E-2,4.8290606E0,7.7378373E0,-9.986851E0,8.18403E0,1.5040803E0,1.9534813E-1,3.5195951E0,-3.188322E-1,1.1101722E0,-2.3156948E0,-9.2912245E0,4.138962E0,-3.819336E0,-1.1056356E0,-3.5823262E0,-3.374167E0,-5.2655177E0,-6.242459E0,3.3271127E0,1.1615355E0,-6.0456333E0,-3.2668164E0,-6.184165E0,-5.792573E0,-9.300018E0,-4.051429E0,5.8220406E0,2.6426885E0,-2.027062E0,-6.9028287E0,-4.4595695E0,-1.813795E0,-1.0991872E1,-1.3982664E1,-1.1886277E0,-1.7819132E0,-1.040313E0,3.005788E-1,-9.1066563E-1,-3.0108154E0,-2.2805104E0,6.717725E0,4.299322E0,3.9417806E0,2.2600257E0,4.0876374E0,3.0723364E0,2.76935E0,1.4239866E0,1.2395606E0,2.0918572E0,1.5039424E0,6.227636E-1,2.1937861E0,1.1065887E0,1.1450713E0,-1.2590428E-1,1.8966439E0,4.8152038E-1,-1.422427E0,1.6414984E0,-1.7698601E0,-2.9030578E0,-1.5221441E0,1.6600703E0,9.023156E-1,-2.1202233E0,2.0886981E-1,-2.8645603E-3,6.002147E-1,8.51896E-1,-2.9772683E-3,-1.6145195E-1,1.0247598E-1,3.6562663E-1,-1.4437695E0,-1.9847775E0,-5.545259E-1,1.6203482E0,-1.2168906E0,-5.440027E-1,-2.811025E-1,4.5439672E-1,-6.469988E-1,-2.4700897E0,-2.9956695E-1,-8.67461E-1,-1.1043534E0,-2.3721932E-1,-1.3616546E0,-8.496394E-1,4.754312E-1,1.6839825E-1,-1.3303984E0,2.0634134E0,-8.254588E-1,-4.5994136E-1,-1.0647129E0,-2.6166532E0,-1.8544463E0,-1.0083687E0,-8.9450914E-1,-2.1288047E0,4.950393E-1,-9.423122E-1,1.2584928E0,9.499699E-1,3.0664864E-1,2.6927264E0,-2.5569096E0,2.321887E-1,-1.2148751E0,-1.5582805E0,-7.286347E-1,-1.0518186E0,-2.0514407E0,-2.4874065E0,-2.0626626E0,-3.4539764E0,-1.0001988E0,1.5671812E-1],"categories":[],"categories_nodes":[],"categories_segments":[],"categories_sizes":[],"default_left":[0,0,0,0,0,0,0,0,0,0,0,0,0,0,0,0,0,0,0,0,0,0,0,0,0,0,0,0,0,0,0,0,0,0,0,0,0,0,0,0,0,0,0,0,0,0,0,0,0,0,0,0,0,0,0,0,0,0,0,0,0,0,0,0,0,0,0,0,0,0,0,0,0,0,0,0,0,0,0,0,0,0,0,0,0,0,0,0,0,0,0,0,0,0,0,0,0,0,0,0,0,0,0,0,0,0,0,0,0,0,0,0,0,0,0,0,0,0,0,0,0,0,0,0,0,0,0,0,0,0,0,0,0,0,0,0,0,0,0,0,0,0,0,0,0,0,0,0,0,0,0,0,0,0,0,0,0,0,0,0,0,0,0,0,0,0,0,0,0,0,0,0,0,0,0,0,0,0,0,0,0,0,0,0,0,0,0,0,0,0,0,0,0,0,0,0,0],"id":3,"left_children":[1,3,5,7,9,11,13,-1,15,17,19,21,23,25,27,29,31,33,35,37,39,41,43,45,47,49,51,53,55,57,59,61,63,65,67,69,71,73,75,77,79,81,83,85,87,89,91,93,95,97,99,101,103,105,107,109,-1,-1,111,-1,113,-1,115,-1,-1,-1,117,119,121,-1,-1,123,125,127,129,131,133,135,137,139,141,143,145,147,149,-1,151,153,155,157,159,161,163,165,-1,167,169,171,173,175,177,179,181,183,185,187,189,-1,191,193,195,-1,-1,-1,-1,-1,-1,-1,-1,-1,-1,-1,-1,-1,-1,-1,-1,-1,-1,-1,-1,-1,-1,-1,-1,-1,-1,-1,-1,-1,-1,-1,-1,-1,-1,-1,-1,-1,-1,-1,-1,-1,-1,-1,-1,-1,-1,-1,-1,-1,-1,-1,-1,-1,-1,-1,-1,-1,-1,-1,-1,-1,-1,-1,-1,-1,-1,-1,-1,-1,-1,-1,-1,-1,-1,-1,-1,-1,-1,-1,-1,-1,-1,-1,-1,-1,-1],"loss_changes":[2.9873528E5,2.4341569E5,8.375135E4,7.1071375E4,2.4896931E5,3.568183E4,1.4394734E4,0E0,4.518089E4,4.896525E4,3.0072805E4,1.8508316E4,6.861289E2,8.343641E3,9.929453E3,7.0762637E3,2.0789766E3,5.9134938E4,8.5864453E2,1.24388125E4,4.390301E4,9.044102E3,5.7056543E3,1.2525625E3,3.010375E3,8.803758E3,8.445643E3,9.576172E3,1.3474883E3,4.0989316E3,5.5144473E3,1.4950703E3,1.00070703E3,1.1329844E4,2.1843281E3,4.7071533E1,3.2110156E2,5.7124062E3,1.19425E4,2.85884E4,3.374416E3,4.7864863E3,5.0013678E2,3.1000977E1,4.887767E3,6.492158E2,7.450879E2,2.513787E3,1.8898033E3,3.3502148E3,2.7128984E3,7.6481436E3,1.3394446E3,1.4529961E3,2.3808203E2,3.4630312E3,0E0,0E0,3.788164E2,0E0,6.8216875E3,0E0,7.079531E2,0E0,0E0,0E0,7.1425312E3,3.2608008E3,9.377422E2,0E0,0E0,1.2372656E2,8.809717E1,5.637793E3,8.3058125E3,2.0702139E3,2.1953383E4,8.4647656E2,2.2978242E3,6.860039E2,3.6520566E3,9.258058E1,9.931367E2,1.75314E2,1.3168347E2,0E0,3.0947266E0,2.597039E3,1.0641509E3,1.7234256E2,8.6759033E2,5.5011084E2,7.3146875E2,1.719292E2,0E0,7.180295E1,5.151039E2,2.7791328E3,2.590291E3,3.8716797E3,1.6587754E3,4.4838203E3,1.2984375E1,4.385282E3,2.5526667E3,1.823457E2,7.628086E2,0E0,1.7076953E2,1.570875E3,1.9940802E2,0E0,0E0,0E0,0E0,0E0,0E0,0E0,0E0,0E0,0E0,0E0,0E0,0E0,0E0,0E0,0E0,0E0,0E0,0E0,0E0,0E0,0E0,0E0,0E0,0E0,0E0,0E0,0E0,0E0,0E0,0E0,0E0,0E0,0E0,0E0,0E0,0E0,0E0,0E0,0E0,0E0,0E0,0E0,0E0,0E0,0E0,0E0,0E0,0E0,0E0,0E0,0E0,0E0,0E0,0E0,0E0,0E0,0E0,0E0,0E0,0E0,0E0,0E0,0E0,0E0,0E0,0E0,0E0,0E0,0E0,0E0,0E0,0E0,0E0,0E0,0E0,0E0,0E0,0E0,0E0,0E0,0E0,0E0,0E0,0E0,0E0],"parents":[2147483647,0,0,1,1,2,2,3,3,4,4,5,5,6,6,8,8,9,9,10,10,11,11,12,12,13,13,14,14,15,15,16,16,17,17,18,18,19,19,20,20,21,21,22,22,23,23,24,24,25,25,26,26,27,27,28,28,29,29,30,30,31,31,32,32,33,33,34,34,35,35,36,36,37,37,38,38,39,39,40,40,41,41,42,42,43,43,44,44,45,45,46,46,47,47,48,48,49,49,50,50,51,51,52,52,53,53,54,54,55,55,58,58,60,60,62,62,66,66,67,67,68,68,71,71,72,72,73,73,74,74,75,75,76,76,77,77,78,78,79,79,80,80,81,81,82,82,83,83,84,84,86,86,87,87,88,88,89,89,90,90,91,91,92,92,93,93,95,95,96,96,97,97,98,98,99,99,100,100,101,101,102,102,103,103,104,104,105,105,106,106,108,108,109,109,110,110],"right_children":[2,4,6,8,10,12,14,-1,16,18,20,22,24,26,28,30,32,34,36,38,40,42,44,46,48,50,52,54,56,58,60,62,64,66,68,70,72,74,76,78,80,82,84,86,88,90,92,94,96,98,100,102,104,106,108,110,-1,-1,112,-1,114,-1,116,-1,-1,-1,118,120,122,-1,-1,124,126,128,130,132,134,136,138,140,142,144,146,148,150,-1,152,154,156,158,160,162,164,166,-1,168,170,172,174,176,178,180,182,184,186,188,190,-1,192,194,196,-1,-1,-1,-1,-1,-1,-1,-1,-1,-1,-1,-1,-1,-1,-1,-1,-1,-1,-1,-1,-1,-1,-1,-1,-1,-1,-1,-1,-1,-1,-1,-1,-1,-1,-1,-1,-1,-1,-1,-1,-1,-1,-1,-1,-1,-1,-1,-1,-1,-1,-1,-1,-1,-1,-1,-1,-1,-1,-1,-1,-1,-1,-1,-1,-1,-1,-1,-1,-1,-1,-1,-1,-1,-1,-1,-1,-1,-1,-1,-1,-1,-1,-1,-1,-1,-1],"split_conditions":[8E0,3E0,1.0089E3,2E0,4E0,1.7E1,3.93E1,1.9769137E0,1E0,1E0,1E0,1E0,2E1,1.0179E3,1E0,3.57E1,4.04E1,1.0089E3,1.0066E3,1.0089E3,6E0,1.4E1,9E0,3.46E1,1.0056E3,1.6E1,1E0,1.8E1,1.7E1,1.9E1,1.0023E3,1.9E1,1.007E3,1.0056E3,3.77E1,1.0017E3,3.71E1,6E0,5E0,5E0,7E0,9E0,4.47E1,1.0068E3,1E1,1.8E1,1.0023E3,1E0,1.0084E3,1.0168E3,1.0168E3,2E1,1.6E1,1E1,1.0101E3,1.5E1,-3.8243053E0,1.8383546E-2,1.0149E3,-1.7473443E0,1.0101E3,-4.9476786E0,1.0179E3,-3.217491E0,-4.7478776E0,4.4852114E0,1.0084E3,1.9E1,3.91E1,5.234625E-1,9.551876E-1,1.9E1,1.007E3,5E0,7E0,1.9E1,6E0,1.0056E3,4.04E1,1.9E1,3.93E1,3.37E1,1.2E1,1.007E3,1.0017E3,-2.3156948E0,1.007E3,1.0056E3,1.2E1,1E0,1E0,1.8E1,1E0,1.0046E3,3.3271127E0,3.61E1,1E0,1.2E1,1E0,1.9E1,1.7E1,9E0,1.0198E3,1.5E1,1.7E1,9E0,1.4E1,-1.813795E0,2E1,1.1E1,1.6E1,-1.7819132E0,-1.040313E0,3.005788E-1,-9.1066563E-1,-3.0108154E0,-2.2805104E0,6.717725E0,4.299322E0,3.9417806E0,2.2600257E0,4.0876374E0,3.0723364E0,2.76935E0,1.4239866E0,1.2395606E0,2.0918572E0,1.5039424E0,6.227636E-1,2.1937861E0,1.1065887E0,1.1450713E0,-1.2590428E-1,1.8966439E0,4.8152038E-1,-1.422427E0,1.6414984E0,-1.7698601E0,-2.9030578E0,-1.5221441E0,1.6600703E0,9.023156E-1,-2.1202233E0,2.0886981E-1,-2.8645603E-3,6.002147E-1,8.51896E-1,-2.9772683E-3,-1.6145195E-1,1.0247598E-1,3.6562663E-1,-1.4437695E0,-1.9847775E0,-5.545259E-1,1.6203482E0,-1.2168906E0,-5.440027E-1,-2.811025E-1,4.5439672E-1,-6.469988E-1,-2.4700897E0,-2.9956695E-1,-8.67461E-1,-1.1043534E0,-2.3721932E-1,-1.3616546E0,-8.496394E-1,4.754312E-1,1.6839825E-1,-1.3303984E0,2.0634134E0,-8.254588E-1,-4.5994136E-1,-1.0647129E0,-2.6166532E0,-1.8544463E0,-1.0083687E0,-8.9450914E-1,-2.1288047E0,4.950393E-1,-9.423122E-1,1.2584928E0,9.499699E-1,3.0664864E-1,2.6927264E0,-2.5569096E0,2.321887E-1,-1.2148751E0,-1.5582805E0,-7.286347E-1,-1.0518186E0,-2.0514407E0,-2.4874065E0,-2.0626626E0,-3.4539764E0,-1.0001988E0,1.5671812E-1],"split_indices":[5,5,2,5,5,5,3,0,7,7,7,7,5,2,7,3,3,2,2,2,5,5,5,3,2,5,7,5,5,3,2,3,2,2,3,2,3,5,5,5,5,5,3,2,5,5,2,7,2,2,2,5,5,5,2,5,0,0,2,0,2,0,2,0,0,0,2,3,3,0,0,3,2,5,5,3,5,2,3,3,3,3,5,2,2,0,2,2,5,7,7,5,7,2,0,3,7,5,7,3,5,5,2,5,5,5,5,0,5,5,5,0,0,0,0,0,0,0,0,0,0,0,0,0,0,0,0,0,0,0,0,0,0,0,0,0,0,0,0,0,0,0,0,0,0,0,0,0,0,0,0,0,0,0,0,0,0,0,0,0,0,0,0,0,0,0,0,0,0,0,0,0,0,0,0,0,0,0,0,0,0,0,0,0,0,0,0,0,0,0,0,0,0,0,0,0,0],"split_type":[0,0,0,0,0,0,0,0,0,0,0,0,0,0,0,0,0,0,0,0,0,0,0,0,0,0,0,0,0,0,0,0,0,0,0,0,0,0,0,0,0,0,0,0,0,0,0,0,0,0,0,0,0,0,0,0,0,0,0,0,0,0,0,0,0,0,0,0,0,0,0,0,0,0,0,0,0,0,0,0,0,0,0,0,0,0,0,0,0,0,0,0,0,0,0,0,0,0,0,0,0,0,0,0,0,0,0,0,0,0,0,0,0,0,0,0,0,0,0,0,0,0,0,0,0,0,0,0,0,0,0,0,0,0,0,0,0,0,0,0,0,0,0,0,0,0,0,0,0,0,0,0,0,0,0,0,0,0,0,0,0,0,0,0,0,0,0,0,0,0,0,0,0,0,0,0,0,0,0,0,0,0,0,0,0,0,0,0,0,0,0,0,0,0,0,0,0],"sum_hessian":[2.6052E4,9.653E3,1.6399E4,2.099E3,7.554E3,7.148E3,9.251E3,2.74E2,1.825E3,1.625E3,5.929E3,5.259E3,1.889E3,7.118E3,2.133E3,1.356E3,4.69E2,1.288E3,3.37E2,4.911E3,1.018E3,4.628E3,6.31E2,1.475E3,4.14E2,5.558E3,1.56E3,1.927E3,2.06E2,4.83E2,8.73E2,3.75E2,9.4E1,6.16E2,6.72E2,8.2E1,2.55E2,2.302E3,2.609E3,5.82E2,4.36E2,3.14E3,1.488E3,1.05E2,5.26E2,4.63E2,1.012E3,1.81E2,2.33E2,3.797E3,1.761E3,1.121E3,4.39E2,1.508E3,4.19E2,1.69E2,3.7E1,6.2E1,4.21E2,1.29E2,7.44E2,1.5E1,3.6E2,4.6E1,4.8E1,2.45E2,3.71E2,3.74E2,2.98E2,1.7E1,6.5E1,1.75E2,8E1,1.168E3,1.134E3,6.6E2,1.949E3,1.12E2,4.7E2,3.38E2,9.8E1,5.19E2,2.621E3,1.18E3,3.08E2,4.9E1,5.6E1,9.3E1,4.33E2,1.66E2,2.97E2,3.07E2,7.05E2,1.77E2,4E0,1.89E2,4.4E1,3.35E3,4.47E2,1.499E3,2.62E2,1.037E3,8.4E1,3.66E2,7.3E1,3.11E2,1.197E3,1.39E2,2.8E2,1.44E2,2.5E1,3.86E2,3.5E1,3.54E2,3.9E2,2.7E2,9E1,3.04E2,6.7E1,5.6E1,3.18E2,5.7E1,2.41E2,3E0,1.72E2,1.1E1,6.9E1,5.56E2,6.12E2,5.92E2,5.42E2,5.5E1,6.05E2,6.66E2,1.283E3,3E0,1.09E2,3.78E2,9.2E1,2E0,3.36E2,7.9E1,1.9E1,1.02E2,4.17E2,1.544E3,1.077E3,7.28E2,4.52E2,1.69E2,1.39E2,1.6E1,4E1,3.4E1,5.9E1,1.4E2,2.93E2,1.53E2,1.3E1,2.87E2,1E1,1.05E2,2.02E2,6.63E2,4.2E1,1.36E2,4.1E1,3.8E1,1.51E2,4.3E1,1E0,1.771E3,1.579E3,3.99E2,4.8E1,2.64E2,1.235E3,5.8E1,2.04E2,9.5E1,9.42E2,5.5E1,2.9E1,3.33E2,3.3E1,1.6E1,5.7E1,1.65E2,1.46E2,5.95E2,6.02E2,1.91E2,8.9E1,7E1,7.4E1,8E0,1.7E1],"tree_param":{"num_deleted":"0","num_feature":"9","num_nodes":"197","size_leaf_vector":"1"}},{"base_weights":[2.0539924E-3,-1.9325135E0,2.0538828E1,1.9566078E-1,-7.250945E0,2.6174582E1,1.6519728E1,8.6121774E-1,-4.8272185E0,-1.9137436E0,-6.578568E0,1.8451757E1,3.3284855E1,1.4079561E1,3.0425295E1,1.5004401E0,-7.282835E-1,4.4771302E-2,-1.4510417E0,-4.029847E-1,-6.989087E0,1.5421727E1,3.143437E1,3.698983E1,7.939085E0,9.979774E0,2.1000454E1,6.19224E-1,3.112819E1,-2.7202442E-1,1.8804857E0,-1.4589598E0,4.6599188E-1,-7.374134E0,-5.8779135E0,3.3480778E1,1.3591277E1,7.971064E0,8.547298E-1,7.920695E0,6.607406E0,6.50184E-1,3.7249572E0,7.104013E0,7.930655E0,1.6952326E0,3.6525375E1,6.9521546E0,2.409972E1,-9.126981E-2,1.9411206E-2,9.3868893E-1,2.7267854E0,-3.7791882E0,2.7864206E0,-6.836335E0,-8.190971E0,-3.819478E-1,-6.7462654E0,7.0716143E0,5.84372E-1,1.1519311E1,1.8324484E1,1.6342472E0,1.4797885E0,8.172383E0,6.755372E0,5.319366E-1,3.0117474E1,4.9527857E-1,-1.4194539E0,4.976754E-1,5.550291E-1,-4.8353225E-2,-1.4258442E0,5.1701003E-1,6.3656616E-1,-1.4873208E0,-9.543044E-1,-1.8030802E0,-1.3682622E0,-5.429608E-1,-1.5661205E0,7.89632E0,1.5092479E0,1.5575204E0,7.0622606E0,6.632586E0,3.852984E0],"categories":[],"categories_nodes":[],"categories_segments":[],"categories_sizes":[],"default_left":[0,0,0,0,0,0,0,0,0,0,0,0,0,0,0,0,0,0,0,0,0,0,0,0,0,0,0,0,0,0,0,0,0,0,0,0,0,0,0,0,0,0,0,0,0,0,0,0,0,0,0,0,0,0,0,0,0,0,0,0,0,0,0,0,0,0,0,0,0,0,0,0,0,0,0,0,0,0,0,0,0,0,0,0,0,0,0,0,0],"id":4,"left_children":[1,3,5,7,9,11,13,15,17,-1,19,21,23,25,27,29,31,-1,-1,-1,33,35,37,39,41,43,45,-1,47,49,51,-1,53,55,57,59,61,-1,-1,-1,-1,-1,-1,-1,63,-1,65,-1,67,-1,-1,69,71,73,75,77,79,-1,81,-1,-1,83,85,-1,-1,-1,-1,-1,87,-1,-1,-1,-1,-1,-1,-1,-1,-1,-1,-1,-1,-1,-1,-1,-1,-1,-1,-1,-1],"loss_changes":[1.0351195E6,2.6950744E5,5.0373E4,5.685877E4,1.0542094E4,5.056325E4,4.409025E4,1.5260051E4,2.4406902E4,0E0,9.8740625E3,1.7177875E4,4.5156562E4,3.151275E4,3.6494688E3,7.215627E3,3.378772E4,0E0,0E0,0E0,2.0283125E3,1.1643523E4,1.9042078E4,3.051375E3,3.0955212E3,3.6562227E4,8.038244E4,0E0,4.0132656E3,1.2875826E2,7.0273574E3,0E0,3.5925957E4,1.5219531E3,4.2977812E3,1.789832E3,3.0644688E3,0E0,0E0,0E0,0E0,0E0,0E0,0E0,2.3070312E1,0E0,8.2484375E2,0E0,8.693316E3,0E0,0E0,5.1620082E4,4.664453E1,1.5273543E4,1.8000195E2,2.656586E3,1.5194688E3,0E0,4.4638594E3,0E0,0E0,2.5809656E4,1.762382E4,0E0,0E0,0E0,0E0,0E0,1.1128203E3,0E0,0E0,0E0,0E0,0E0,0E0,0E0,0E0,0E0,0E0,0E0,0E0,0E0,0E0,0E0,0E0,0E0,0E0,0E0,0E0],"parents":[2147483647,0,0,1,1,2,2,3,3,4,4,5,5,6,6,7,7,8,8,10,10,11,11,12,12,13,13,14,14,15,15,16,16,20,20,21,21,22,22,23,23,24,24,25,25,26,26,28,28,29,29,30,30,32,32,33,33,34,34,35,35,36,36,44,44,46,46,48,48,51,51,52,52,53,53,54,54,55,55,56,56,58,58,61,61,62,62,68,68],"right_children":[2,4,6,8,10,12,14,16,18,-1,20,22,24,26,28,30,32,-1,-1,-1,34,36,38,40,42,44,46,-1,48,50,52,-1,54,56,58,60,62,-1,-1,-1,-1,-1,-1,-1,64,-1,66,-1,68,-1,-1,70,72,74,76,78,80,-1,82,-1,-1,84,86,-1,-1,-1,-1,-1,88,-1,-1,-1,-1,-1,-1,-1,-1,-1,-1,-1,-1,-1,-1,-1,-1,-1,-1,-1,-1],"split_conditions":[1E0,1E0,5.1E1,6.7E1,1.62E1,3.9E1,1E0,5.1E1,1.62E1,-1.9137436E0,2.33E1,3.16E1,1E0,2.46E1,1.62E1,1.62E1,5.3E1,4.4771302E-2,-1.4510417E0,-4.029847E-1,5.1E1,1.62E1,1E0,3.14E1,3.14E1,1.62E1,5.3E1,6.19224E-1,2.46E1,1.43E1,3.9E1,-1.4589598E0,2.46E1,4.1E1,5.3E1,1E0,1E0,7.971064E0,8.547298E-1,7.920695E0,6.607406E0,6.50184E-1,3.7249572E0,7.104013E0,2.33E1,1.6952326E0,2.69E1,6.9521546E0,2.69E1,-9.126981E-2,1.9411206E-2,3.6E1,4.1E1,1.46E1,2.86E1,3.6E1,3.14E1,-3.819478E-1,2.46E1,7.0716143E0,5.84372E-1,2.66E1,2.66E1,1.6342472E0,1.4797885E0,8.172383E0,6.755372E0,5.319366E-1,5.3E1,4.9527857E-1,-1.4194539E0,4.976754E-1,5.550291E-1,-4.8353225E-2,-1.4258442E0,5.1701003E-1,6.3656616E-1,-1.4873208E0,-9.543044E-1,-1.8030802E0,-1.3682622E0,-5.429608E-1,-1.5661205E0,7.89632E0,1.5092479E0,1.5575204E0,7.0622606E0,6.632586E0,3.852984E0],"split_indices":[6,8,1,1,0,1,8,1,0,0,0,0,8,0,0,0,1,0,0,0,1,0,8,0,0,0,1,0,0,0,1,0,0,1,1,8,8,0,0,0,0,0,0,0,0,0,0,0,0,0,0,1,1,0,0,1,0,0,0,0,0,0,0,0,0,0,0,0,1,0,0,0,0,0,0,0,0,0,0,0,0,0,0,0,0,0,0,0,0],"split_type":[0,0,0,0,0,0,0,0,0,0,0,0,0,0,0,0,0,0,0,0,0,0,0,0,0,0,0,0,0,0,0,0,0,0,0,0,0,0,0,0,0,0,0,0,0,0,0,0,0,0,0,0,0,0,0,0,0,0,0,0,0,0,0,0,0,0,0,0,0,0,0,0,0,0,0,0,0,0,0,0,0,0,0,0,0,0,0,0,0],"sum_hessian":[2.6052E4,2.381E4,2.242E3,1.7006E4,6.804E3,9.31E2,1.311E3,1.5017E4,1.989E3,1.527E3,5.277E3,4.48E2,4.83E2,1.117E3,1.94E2,1.071E4,4.307E3,6.46E2,1.343E3,4.36E2,4.841E3,3.65E2,8.3E1,4.21E2,6.2E1,7.03E2,4.14E2,5E0,1.89E2,1.891E3,8.819E3,6.62E2,3.645E3,3.591E3,1.25E3,3.2E1,3.33E2,6.3E1,2E1,2.48E2,1.73E2,4.4E1,1.8E1,5.1E1,6.52E2,2.3E2,1.84E2,1.22E2,6.7E1,1.261E3,6.3E2,4.175E3,4.644E3,1.288E3,2.357E3,2.171E3,1.42E3,2.25E2,1.025E3,3E1,2E0,2.34E2,9.9E1,4.39E2,2.13E2,6.6E1,1.18E2,1.5E1,5.2E1,3.505E3,6.7E2,7.92E2,3.852E3,6.27E2,6.61E2,1.568E3,7.89E2,1.68E3,4.91E2,8.78E2,5.42E2,2.18E2,8.07E2,2.8E1,2.06E2,6.2E1,3.7E1,3.9E1,1.3E1],"tree_param":{"num_deleted":"0","num_feature":"9","num_nodes":"89","size_leaf_vector":"1"}},{"base_weights":[4.916885E-3,1.7427087E0,-4.561445E0,2.987239E0,-2.7644167E0,-5.4063597E0,-1.6893574E0,3.5732498E0,-6.416699E-1,4.2874715E-1,-4.647668E0,-6.192527E0,-8.190514E-1,2.7740612E0,-5.7493033E0,4.5361624E0,1.751126E0,-1.6930383E0,4.8278055E-1,7.469699E-1,-5.3595734E-1,-1.9269186E0,-4.388666E0,-1.0218978E0,-6.6677866E0,6.1633444E-1,-1.5357808E0,6.16173E-1,5.23599E-1,-1.3535742E0,-1.0293449E0,2.069182E0,4.88396E0,-1.7844797E0,5.4822454E0,-3.093957E-1,-3.6641002E-1,1.9579487E-1,5.908325E-1,-3.6239517E0,-6.4416823E0,-7.237635E0,-6.3330827E0,3.9918432E-1,4.280784E-1,3.562701E0,5.8566875E0,-3.1434998E-1,-3.7847075E-1,1.1211466E0,1.0450232E0,4.2959434E-1,1.8270126E-1,-3.2883458E0,-5.452335E0,-1.7460657E0,-6.615004E-1,-1.5074431E0,-1.3843052E0,-5.966343E0,-7.177307E0,9.197839E-1,5.701587E-1,1.2031739E0,1.1067373E0,9.585034E-2,7.592884E-2,-7.0505524E-1,-5.776996E-1,-1.747407E0,-5.149347E-1,-1.2457021E0,-9.705642E-1,-1.5233122E0,-1.339501E0],"categories":[],"categories_nodes":[],"categories_segments":[],"categories_sizes":[],"default_left":[0,0,0,0,0,0,0,0,0,0,0,0,0,0,0,0,0,0,0,0,0,0,0,0,0,0,0,0,0,0,0,0,0,0,0,0,0,0,0,0,0,0,0,0,0,0,0,0,0,0,0,0,0,0,0,0,0,0,0,0,0,0,0,0,0,0,0,0,0,0,0,0,0,0,0],"id":5,"left_children":[1,3,5,7,9,11,13,15,17,19,21,23,25,27,29,31,33,35,-1,37,-1,-1,39,-1,41,-1,-1,-1,-1,-1,-1,43,45,47,49,-1,-1,-1,51,53,55,57,59,-1,-1,61,63,-1,-1,-1,-1,65,-1,67,69,-1,-1,-1,-1,71,73,-1,-1,-1,-1,-1,-1,-1,-1,-1,-1,-1,-1,-1,-1],"loss_changes":[2.0674858E5,1.0586609E5,1.7419188E4,3.1452297E4,2.4561246E4,2.0006797E4,2.9626055E4,2.2332688E4,6.6122666E3,1.5016383E3,3.2758945E3,2.4041719E3,2.1778232E4,2.9233887E1,4.9055078E2,7.1371094E3,5.8106324E4,2.8251465E1,0E0,4.92666E1,0E0,0E0,3.813664E3,0E0,5.8146875E2,0E0,0E0,0E0,0E0,0E0,0E0,1.105957E0,9.361266E3,4.8934082E1,3.8757812E1,0E0,0E0,0E0,4.253006E1,1.0761484E3,4.719672E3,6.2414062E1,6.011719E2,0E0,0E0,2.2722578E3,1.8279688E2,0E0,0E0,0E0,0E0,1.187233E0,0E0,1.3277344E2,2.5768765E3,0E0,0E0,0E0,0E0,3.948203E2,8.071289E1,0E0,0E0,0E0,0E0,0E0,0E0,0E0,0E0,0E0,0E0,0E0,0E0,0E0,0E0],"parents":[2147483647,0,0,1,1,2,2,3,3,4,4,5,5,6,6,7,7,8,8,9,9,10,10,11,11,12,12,13,13,14,14,15,15,16,16,17,17,19,19,22,22,24,24,31,31,32,32,33,33,34,34,38,38,39,39,40,40,41,41,42,42,45,45,46,46,51,51,53,53,54,54,59,59,60,60],"right_children":[2,4,6,8,10,12,14,16,18,20,22,24,26,28,30,32,34,36,-1,38,-1,-1,40,-1,42,-1,-1,-1,-1,-1,-1,44,46,48,50,-1,-1,-1,52,54,56,58,60,-1,-1,62,64,-1,-1,-1,-1,66,-1,68,70,-1,-1,-1,-1,72,74,-1,-1,-1,-1,-1,-1,-1,-1,-1,-1,-1,-1,-1,-1],"split_conditions":[1E0,1E0,4.04E1,6.7E1,3.6E1,6.5E1,4.34E1,4.04E1,7.7E1,3.92E1,1.9E1,3.6E1,7.7E1,3.9E1,1.8E1,3.02E1,4.34E1,7.1E1,4.8278055E-1,3.57E1,-5.3595734E-1,-1.9269186E0,4.04E1,-1.0218978E0,3.37E1,6.1633444E-1,-1.5357808E0,6.16173E-1,5.23599E-1,-1.3535742E0,-1.0293449E0,4.4E1,4.2E1,4.07E1,6.1E1,-3.093957E-1,-3.6641002E-1,1.9579487E-1,2.2E1,6.5E1,5.5E1,3.02E1,3.71E1,3.9918432E-1,4.280784E-1,3.61E1,3.67E1,-3.1434998E-1,-3.7847075E-1,1.1211466E0,1.0450232E0,1.7E1,1.8270126E-1,3.67E1,7.1E1,-1.7460657E0,-6.615004E-1,-1.5074431E0,-1.3843052E0,3.69E1,3.9E1,9.197839E-1,5.701587E-1,1.2031739E0,1.1067373E0,9.585034E-2,7.592884E-2,-7.0505524E-1,-5.776996E-1,-1.747407E0,-5.149347E-1,-1.2457021E0,-9.705642E-1,-1.5233122E0,-1.339501E0],"split_indices":[8,7,3,1,1,1,3,3,1,3,3,1,1,1,1,3,3,1,0,3,0,0,3,0,3,0,0,0,0,0,0,1,1,3,1,0,0,0,1,1,1,3,3,0,0,3,3,0,0,0,0,1,0,3,1,0,0,0,0,3,1,0,0,0,0,0,0,0,0,0,0,0,0,0,0],"split_type":[0,0,0,0,0,0,0,0,0,0,0,0,0,0,0,0,0,0,0,0,0,0,0,0,0,0,0,0,0,0,0,0,0,0,0,0,0,0,0,0,0,0,0,0,0,0,0,0,0,0,0,0,0,0,0,0,0,0,0,0,0,0,0,0,0,0,0,0,0,0,0,0,0,0,0],"sum_hessian":[2.6052E4,1.8871E4,7.181E3,1.4788E4,4.083E3,5.548E3,1.633E3,1.2732E4,2.056E3,1.515E3,2.568E3,4.736E3,8.12E2,7.78E2,8.55E2,8.329E3,4.403E3,1.53E3,5.26E2,1.375E3,1.4E2,1.25E2,2.443E3,1.448E3,3.288E3,5.18E2,2.94E2,2.56E2,5.22E2,3.14E2,5.41E2,1.03E3,7.299E3,2.261E3,2.142E3,7.52E2,7.78E2,5.51E2,8.24E2,1.782E3,6.61E2,1.209E3,2.079E3,5.22E2,5.08E2,3.097E3,4.202E3,7.66E2,1.495E3,1.433E3,7.09E2,5.51E2,2.73E2,1.508E3,2.74E2,3.81E2,2.8E2,6.09E2,6E2,1.455E3,6.24E2,1.259E3,1.838E3,2.803E3,1.399E3,2.72E2,2.79E2,9.42E2,5.66E2,1.27E2,1.47E2,1.174E3,2.81E2,3.18E2,3.06E2],"tree_param":{"num_deleted":"0","num_feature":"9","num_nodes":"75","size_leaf_vector":"1"}},{"base_weights":[3.4306776E-3,-1.5450919E0,1.644207E1,-2.2034143E-1,-4.8556705E0,2.5813875E1,1.2021756E1,1.371924E0,-1.5713463E0,-1.2389754E0,-4.467045E0,2.8934767E1,7.9186997E0,2.6367342E1,1.0450326E1,1.2308309E0,1.4322004E0,-9.544318E-1,-1.0423907E0,-5.2772694E0,-3.5542748E0,6.2541842E0,2.717356E1,8.359826E-1,1.3261937E1,5.5790915E0,9.0430754E-1,7.5842495E0,2.2676216E1,2.2720645E-1,2.5487506E-1,1.537976E0,1.352478E0,-1.5981051E0,1.5236839E0,-1.1907152E0,-4.7956324E0,-3.8928056E0,-3.987222E-1,6.6476207E0,5.146103E0,6.6469693E-1,3.3769996E0,7.2913814E0,6.0274487E0,2.437652E1,1.4074814E0,2.762007E-1,1.6156776E0,2.2884396E-1,1.4221207E0,-2.2512214E0,1.5321606E0,2.6512462E-1,3.8347107E-1,-1.1931528E0,-9.070067E-1,-4.4555673E-1,-4.3437223E0,6.9098587E0,7.8264327E0,5.4567943E0,2.099605E1,3.4865087E-1,2.965723E-1,2.9971075E-1,2.766181E-1,-7.415172E-2,-1.043702E0,3.6429316E-1,2.4757133E-1,-9.492629E-1,-8.252808E-1,1.4179918E0,1.3014541E0,6.031093E0,1.3981968E0,1.4454075E0,5.467931E0],"categories":[],"categories_nodes":[],"categories_segments":[],"categories_sizes":[],"default_left":[0,0,0,0,0,0,0,0,0,0,0,0,0,0,0,0,0,0,0,0,0,0,0,0,0,0,0,0,0,0,0,0,0,0,0,0,0,0,0,0,0,0,0,0,0,0,0,0,0,0,0,0,0,0,0,0,0,0,0,0,0,0,0,0,0,0,0,0,0,0,0,0,0,0,0,0,0,0,0],"id":6,"left_children":[1,3,5,7,9,11,13,15,17,-1,19,21,23,25,27,29,31,33,-1,35,37,-1,39,-1,41,-1,-1,43,45,-1,-1,47,49,51,53,-1,55,57,-1,-1,-1,-1,-1,59,-1,61,-1,-1,63,-1,65,67,69,-1,-1,-1,-1,-1,71,73,75,-1,77,-1,-1,-1,-1,-1,-1,-1,-1,-1,-1,-1,-1,-1,-1,-1,-1],"loss_changes":[6.6322025E5,1.0442659E5,9.2608875E4,3.6586906E4,3.514E3,3.9870406E4,3.4125188E4,6.463281E1,2.065995E4,0E0,3.8845703E3,1.6641562E3,2.1021064E3,4.8813203E3,4.807858E4,8.228027E0,4.3996094E1,1.2554252E4,0E0,8.815469E2,1.3051465E3,0E0,2.2602812E3,0E0,1.5282173E3,0E0,0E0,7.1580977E3,6.7686094E3,0E0,0E0,2.6321777E1,4.3682617E1,1.277499E4,1.2400488E2,0E0,4.721211E2,1.5226797E3,0E0,0E0,0E0,0E0,0E0,1.7128516E2,0E0,1.7368594E3,0E0,0E0,2.3848145E1,0E0,4.898926E0,2.8840447E4,8.961499E1,0E0,0E0,0E0,0E0,0E0,1.2083789E2,1.2109375E0,8.221131E3,0E0,9.672418E3,0E0,0E0,0E0,0E0,0E0,0E0,0E0,0E0,0E0,0E0,0E0,0E0,0E0,0E0,0E0,0E0],"parents":[2147483647,0,0,1,1,2,2,3,3,4,4,5,5,6,6,7,7,8,8,10,10,11,11,12,12,13,13,14,14,15,15,16,16,17,17,19,19,20,20,22,22,24,24,27,27,28,28,31,31,32,32,33,33,34,34,36,36,37,37,43,43,45,45,48,48,50,50,51,51,52,52,58,58,59,59,60,60,62,62],"right_children":[2,4,6,8,10,12,14,16,18,-1,20,22,24,26,28,30,32,34,-1,36,38,-1,40,-1,42,-1,-1,44,46,-1,-1,48,50,52,54,-1,56,58,-1,-1,-1,-1,-1,60,-1,62,-1,-1,64,-1,66,68,70,-1,-1,-1,-1,-1,72,74,76,-1,78,-1,-1,-1,-1,-1,-1,-1,-1,-1,-1,-1,-1,-1,-1,-1,-1],"split_conditions":[1E0,1E0,1.0089E3,1.0089E3,1.62E1,1E0,1.62E1,1.0046E3,2.66E1,-1.2389754E0,1.0089E3,1.0056E3,1.0056E3,1E0,1E0,2.96E1,1.0068E3,2.46E1,-1.0423907E0,1.0056E3,2.66E1,6.2541842E0,2.8E1,8.359826E-1,2.8E1,5.5790915E0,9.0430754E-1,1.0182E3,1.0182E3,2.2720645E-1,2.5487506E-1,2.69E1,1.007E3,1.0182E3,2.64E1,-1.1907152E0,2.8E1,2.33E1,-3.987222E-1,6.6476207E0,5.146103E0,6.6469693E-1,3.3769996E0,2.46E1,6.0274487E0,2.46E1,1.4074814E0,2.762007E-1,2.98E1,2.2884396E-1,2.8E1,1.62E1,2.39E1,2.6512462E-1,3.8347107E-1,-1.1931528E0,-9.070067E-1,-4.4555673E-1,2.43E1,2.33E1,2.66E1,5.4567943E0,2.66E1,3.4865087E-1,2.965723E-1,2.9971075E-1,2.766181E-1,-7.415172E-2,-1.043702E0,3.6429316E-1,2.4757133E-1,-9.492629E-1,-8.252808E-1,1.4179918E0,1.3014541E0,6.031093E0,1.3981968E0,1.4454075E0,5.467931E0],"split_indices":[6,8,2,2,0,8,0,2,0,0,2,2,2,8,8,0,2,0,0,2,0,0,0,0,0,0,0,2,2,0,0,0,2,2,0,0,0,0,0,0,0,0,0,0,0,0,0,0,0,0,0,0,0,0,0,0,0,0,0,0,0,0,0,0,0,0,0,0,0,0,0,0,0,0,0,0,0,0,0],"split_type":[0,0,0,0,0,0,0,0,0,0,0,0,0,0,0,0,0,0,0,0,0,0,0,0,0,0,0,0,0,0,0,0,0,0,0,0,0,0,0,0,0,0,0,0,0,0,0,0,0,0,0,0,0,0,0,0,0,0,0,0,0,0,0,0,0,0,0,0,0,0,0,0,0,0,0,0,0,0,0],"sum_hessian":[2.6052E4,2.381E4,2.242E3,1.7006E4,6.804E3,7.17E2,1.525E3,7.806E3,9.2E3,1.527E3,5.277E3,6.1E2,1.07E2,1.49E2,1.376E3,2.343E3,5.463E3,7.868E3,1.332E3,2.793E3,2.484E3,2.55E2,3.55E2,6.4E1,4.3E1,1.39E2,1E1,1.116E3,2.6E2,7.46E2,1.597E3,2.34E3,3.123E3,6.246E3,1.622E3,1.157E3,1.636E3,2.04E3,4.44E2,6.4E1,2.91E2,1.2E1,3.1E1,1.103E3,1.3E1,2.34E2,2.6E1,7.81E2,1.559E3,7.87E2,2.336E3,5.168E3,1.078E3,1.082E3,5.4E2,2.94E2,1.342E3,4.36E2,1.604E3,6.52E2,4.51E2,1.22E2,1.12E2,7.89E2,7.7E2,7.77E2,1.559E3,3.164E3,2.004E3,5.41E2,5.37E2,5.55E2,1.049E3,4.39E2,2.13E2,1.5E1,4.36E2,3.6E1,7.6E1],"tree_param":{"num_deleted":"0","num_feature":"9","num_nodes":"79","size_leaf_vector":"1"}},{"base_weights":[4.798688E-3,3.2337623E0,-1.8959585E0,-4.1422024E0,5.2835693E0,-8.5584104E-1,-2.9778953E0,5.6504397E0,-5.6147294E0,1.42822485E1,2.8152494E0,-2.0698233E0,-7.950506E-2,-2.4611726E0,-3.8159232E0,9.191198E-1,1.1774778E0,-3.739681E0,-7.1495504E0,1.0846629E1,1.8732727E1,1.7247732E0,3.989945E0,-2.948018E0,-1.8004583E-1,-3.5070765E0,4.600309E-1,-4.551868E0,-2.294163E0,-2.347522E0,-5.0338025E0,-1.763201E0,-3.249329E0,-7.592438E0,-3.6000246E-1,7.9501963E0,1.242287E1,2.0201717E1,2.7647069E0,1.2571846E0,2.183417E0,1.1823673E0,4.625274E0,-6.0119545E-1,-3.4183235E0,1.2032531E0,-1.6425822E0,-4.3916717E0,-1.4888514E0,-1.167722E0,8.178742E-1,-3.8355622E0,-1.124421E0,-3.4847634E0,-2.051092E0,-3.3212757E0,-1.1930429E0,-3.3832433E0,-5.391724E0,-2.2416058E0,-3.886332E0,-1.2549735E0,-7.8035774E0,1.5342118E0,1.8382368E0,9.579103E0,2.9038312E0,1.4840607E1,4.5608935E0,6.138821E-1,1.5710194E0,3.057937E0,1.3888415E0,4.0316334E-1,2.1671827E0,5.382365E0,3.688086E0,5.486877E-1,-4.1193023E0,-4.511235E0,-2.983519E0,-1.0892765E-3,2.6960351E0,-7.838271E-1,-2.5258784E0,-5.1762533E0,-3.5380285E0,-1.2777026E0,-1.697866E0,1.9143758E0,-2.0091155E0,-1.0515057E0,1.2165681E0,-4.0647807E0,-6.320366E-1,-4.706571E0,-2.3062787E0,-4.0211174E-1,-2.4638786E0,-4.8935623E0,-2.4031906E0,-1.848922E0,-8.262947E-1,-2.517622E0,-4.373985E0,-6.5002394E0,-4.484956E0,-3.482297E-1,-5.487722E-1,-1.5885648E0,-5.99684E-1,-1.4593244E0,-1.6090313E0,1.5852807E0,2.007232E0,2.7096221E0,3.309899E0,4.7551665E-1,7.810664E-4,2.5981697E-1,4.638124E-1,4.0370628E-1,7.097314E-1,4.8190337E-1,-1.3836426E-1,-1.3314186E-1,1.3441257E-1,6.951454E-1,7.8412324E-2,4.964415E-1,1.3333449E0,1.1680915E0,4.3613577E-1,2.2147818E-1,-2.1924873E-1,-9.11986E-1,-7.200811E-1,-7.409532E-1,-9.501562E-1,-4.0700942E-1,-9.0187496E-1,-7.0850775E-2,5.1828723E-2,3.493372E-1,7.88942E-1,6.183123E-1,-6.075361E-1,-1.2087672E0,-1.81285E-1,-1.1371974E0,-9.1980475E-1,-4.1686448E-1,-9.451189E-1,-2.0650068E-1,-2.9751614E-1,-4.022545E-1,-2.638323E-1,4.5594522E-1,2.2873597E-1,-5.352468E-1,-1.5890126E-1,-1.1627464E-2,-1.1707543E0,4.2126486E-1,1.9808742E-1,-7.531875E-1,-9.260548E-1,-8.9171696E-1,-1.0901175E0,-3.5800573E-1,-5.763948E-1,8.9576535E-2,-4.5479313E-1,-6.5068734E-1,-3.7344986E-1,-1.2931377E0,-8.048011E-1,1.8974397E-2,-7.047643E-1,-6.664035E-1,-2.5498453E-1,-3.7354082E-1,-9.1647744E-2,-9.212605E-1,-2.4997622E-2,-7.5289184E-1,-9.80947E-1,-1.2287103E0,-1.517327E0,-1.270035E0,-7.5850576E-1],"categories":[],"categories_nodes":[],"categories_segments":[],"categories_sizes":[],"default_left":[0,0,0,0,0,0,0,0,0,0,0,0,0,0,0,0,0,0,0,0,0,0,0,0,0,0,0,0,0,0,0,0,0,0,0,0,0,0,0,0,0,0,0,0,0,0,0,0,0,0,0,0,0,0,0,0,0,0,0,0,0,0,0,0,0,0,0,0,0,0,0,0,0,0,0,0,0,0,0,0,0,0,0,0,0,0,0,0,0,0,0,0,0,0,0,0,0,0,0,0,0,0,0,0,0,0,0,0,0,0,0,0,0,0,0,0,0,0,0,0,0,0,0,0,0,0,0,0,0,0,0,0,0,0,0,0,0,0,0,0,0,0,0,0,0,0,0,0,0,0,0,0,0,0,0,0,0,0,0,0,0,0,0,0,0,0,0,0,0,0,0,0,0,0,0,0,0,0,0,0,0,0,0,0,0,0,0,0,0,0,0],"id":7,"left_children":[1,3,5,7,9,11,13,15,17,19,21,23,25,27,29,-1,-1,31,33,35,37,39,41,43,45,47,49,51,53,55,57,-1,59,61,-1,63,65,67,-1,69,71,73,75,77,79,81,83,85,87,89,91,93,-1,95,97,99,101,103,105,107,109,-1,111,-1,-1,113,-1,115,-1,117,119,121,123,125,127,129,131,133,135,137,139,141,143,145,147,149,151,153,155,157,159,161,163,165,-1,167,169,171,173,175,177,179,181,183,185,187,189,-1,-1,-1,-1,-1,-1,-1,-1,-1,-1,-1,-1,-1,-1,-1,-1,-1,-1,-1,-1,-1,-1,-1,-1,-1,-1,-1,-1,-1,-1,-1,-1,-1,-1,-1,-1,-1,-1,-1,-1,-1,-1,-1,-1,-1,-1,-1,-1,-1,-1,-1,-1,-1,-1,-1,-1,-1,-1,-1,-1,-1,-1,-1,-1,-1,-1,-1,-1,-1,-1,-1,-1,-1,-1,-1,-1,-1,-1,-1,-1,-1,-1,-1,-1],"loss_changes":[1.599058E5,1.4598366E5,1.8453047E4,3.0313574E4,1.6776858E5,7.881613E3,3.4712812E3,4.167871E1,5.228242E3,2.4658562E4,7.5893164E3,5.4130596E3,9.436732E3,1.7266602E3,5.4676484E3,0E0,0E0,2.0224414E3,2.3626914E3,4.1014688E3,4.8193125E3,6.571377E2,5.0853125E3,2.4559395E3,2.0979338E3,1.2324678E3,2.5691113E3,2.5978418E2,1.3266973E3,1.559769E3,9.7070703E2,0E0,4.7465674E2,2.0864062E2,0E0,4.276758E1,3.401961E3,7.2244375E3,0E0,3.071211E2,1.0741948E3,4.042987E2,1.6312383E3,1.5111987E3,8.68041E2,9.582414E2,3.803219E2,3.0450684E2,7.2309875E0,2.0654858E3,2.6955764E3,2.1677002E1,0E0,1.1122529E3,2.606004E3,1.0766338E3,1.5193835E2,2.4712769E2,1.3519453E3,6.9121704E1,1.6330151E3,0E0,3.8535156E1,0E0,0E0,1.1307031E2,0E0,1.7335156E2,0E0,5.4005066E2,2.0549146E2,3.692588E2,1.7324672E3,8.552353E1,5.398556E2,4.769879E3,3.3712783E3,2.6037994E2,4.6174316E0,8.401465E1,1.9156406E3,2.7295696E1,2.752417E2,2.254172E3,1.4074196E3,4.7114258E1,3.9412134E2,4.124893E0,9.690399E0,4.554187E1,5.0430396E2,3.0336465E3,5.9749365E2,1.0108887E1,0E0,4.6179688E1,1.1342505E2,1.2229567E3,1.4368223E3,3.5265527E2,1.3384502E3,1.8984747E2,1.566792E2,8.140082E2,2.6503662E1,1.9209375E2,9.561865E2,0E0,0E0,0E0,0E0,0E0,0E0,0E0,0E0,0E0,0E0,0E0,0E0,0E0,0E0,0E0,0E0,0E0,0E0,0E0,0E0,0E0,0E0,0E0,0E0,0E0,0E0,0E0,0E0,0E0,0E0,0E0,0E0,0E0,0E0,0E0,0E0,0E0,0E0,0E0,0E0,0E0,0E0,0E0,0E0,0E0,0E0,0E0,0E0,0E0,0E0,0E0,0E0,0E0,0E0,0E0,0E0,0E0,0E0,0E0,0E0,0E0,0E0,0E0,0E0,0E0,0E0,0E0,0E0,0E0,0E0,0E0,0E0,0E0,0E0,0E0,0E0,0E0,0E0,0E0,0E0,0E0,0E0,0E0,0E0],"parents":[2147483647,0,0,1,1,2,2,3,3,4,4,5,5,6,6,7,7,8,8,9,9,10,10,11,11,12,12,13,13,14,14,17,17,18,18,19,19,20,20,21,21,22,22,23,23,24,24,25,25,26,26,27,27,28,28,29,29,30,30,32,32,33,33,35,35,36,36,37,37,39,39,40,40,41,41,42,42,43,43,44,44,45,45,46,46,47,47,48,48,49,49,50,50,51,51,53,53,54,54,55,55,56,56,57,57,58,58,59,59,60,60,62,62,65,65,67,67,69,69,70,70,71,71,72,72,73,73,74,74,75,75,76,76,77,77,78,78,79,79,80,80,81,81,82,82,83,83,84,84,85,85,86,86,87,87,88,88,89,89,90,90,91,91,92,92,93,93,95,95,96,96,97,97,98,98,99,99,100,100,101,101,102,102,103,103,104,104,105,105,106,106],"right_children":[2,4,6,8,10,12,14,16,18,20,22,24,26,28,30,-1,-1,32,34,36,38,40,42,44,46,48,50,52,54,56,58,-1,60,62,-1,64,66,68,-1,70,72,74,76,78,80,82,84,86,88,90,92,94,-1,96,98,100,102,104,106,108,110,-1,112,-1,-1,114,-1,116,-1,118,120,122,124,126,128,130,132,134,136,138,140,142,144,146,148,150,152,154,156,158,160,162,164,166,-1,168,170,172,174,176,178,180,182,184,186,188,190,-1,-1,-1,-1,-1,-1,-1,-1,-1,-1,-1,-1,-1,-1,-1,-1,-1,-1,-1,-1,-1,-1,-1,-1,-1,-1,-1,-1,-1,-1,-1,-1,-1,-1,-1,-1,-1,-1,-1,-1,-1,-1,-1,-1,-1,-1,-1,-1,-1,-1,-1,-1,-1,-1,-1,-1,-1,-1,-1,-1,-1,-1,-1,-1,-1,-1,-1,-1,-1,-1,-1,-1,-1,-1,-1,-1,-1,-1,-1,-1,-1,-1,-1,-1],"split_conditions":[8E0,3E0,1.4E1,2E0,4E0,2.46E1,5.1E1,2.29E1,1.5E0,2.8E1,6E0,1.2E1,8E-1,8E-1,1.7E1,9.191198E-1,1.1774778E0,1.62E1,6.5E1,3.9E1,1.5E0,4.7E1,1.62E1,3.6E1,1.62E1,1.2E1,9E0,1.8E1,1.5E1,2.46E1,1.62E1,-1.763201E0,2.91E1,1.7E1,-3.6000246E-1,3.4E0,1.62E1,9E-1,2.7647069E0,1.9E0,2.69E1,7E0,7E0,1.1E1,9E0,1.3E1,1.3E1,1E1,2.91E1,2.66E1,2.66E1,1.7E1,-1.124421E0,2.66E1,1.6E1,1.5E1,1.5E1,1.9E1,2.46E1,5.5E1,2.96E1,-1.2549735E0,3.6E1,1.5342118E0,1.8382368E0,1.4E1,2.9038312E0,8E-1,4.5608935E0,8E-1,2.66E1,1.3E0,5.3E1,1.4E1,4.4E1,3.9E1,2.69E1,1E1,2.39E1,1.3E0,1.1E1,4.2E1,4.4E1,3.6E1,3.6E1,2.91E1,1.1E1,1.3E1,1.3E1,2.5E0,1.5E0,1.3E1,1E1,1.6E1,-6.320366E-1,2.6E1,1.4E0,3.14E1,1.8E1,1.62E1,1.62E1,2.69E1,5.3E1,1.8E1,2E1,2E1,5.3E1,-3.482297E-1,-5.487722E-1,-1.5885648E0,-5.99684E-1,-1.4593244E0,-1.6090313E0,1.5852807E0,2.007232E0,2.7096221E0,3.309899E0,4.7551665E-1,7.810664E-4,2.5981697E-1,4.638124E-1,4.0370628E-1,7.097314E-1,4.8190337E-1,-1.3836426E-1,-1.3314186E-1,1.3441257E-1,6.951454E-1,7.8412324E-2,4.964415E-1,1.3333449E0,1.1680915E0,4.3613577E-1,2.2147818E-1,-2.1924873E-1,-9.11986E-1,-7.200811E-1,-7.409532E-1,-9.501562E-1,-4.0700942E-1,-9.0187496E-1,-7.0850775E-2,5.1828723E-2,3.493372E-1,7.88942E-1,6.183123E-1,-6.075361E-1,-1.2087672E0,-1.81285E-1,-1.1371974E0,-9.1980475E-1,-4.1686448E-1,-9.451189E-1,-2.0650068E-1,-2.9751614E-1,-4.022545E-1,-2.638323E-1,4.5594522E-1,2.2873597E-1,-5.352468E-1,-1.5890126E-1,-1.1627464E-2,-1.1707543E0,4.2126486E-1,1.9808742E-1,-7.531875E-1,-9.260548E-1,-8.9171696E-1,-1.0901175E0,-3.5800573E-1,-5.763948E-1,8.9576535E-2,-4.5479313E-1,-6.5068734E-1,-3.7344986E-1,-1.2931377E0,-8.048011E-1,1.8974397E-2,-7.047643E-1,-6.664035E-1,-2.5498453E-1,-3.7354082E-1,-9.1647744E-2,-9.212605E-1,-2.4997622E-2,-7.5289184E-1,-9.80947E-1,-1.2287103E0,-1.517327E0,-1.270035E0,-7.5850576E-1],"split_indices":[5,5,5,5,5,0,1,0,4,0,5,5,4,4,5,0,0,0,1,1,4,1,0,1,0,5,5,5,5,0,0,0,0,1,0,4,0,4,0,4,0,5,5,5,5,5,5,5,0,0,0,5,0,0,5,5,5,5,0,1,0,0,1,0,0,0,0,4,0,4,0,4,1,0,1,1,0,5,0,4,5,1,1,1,1,0,5,5,5,4,4,5,5,5,0,0,4,0,5,0,0,0,1,5,5,5,1,0,0,0,0,0,0,0,0,0,0,0,0,0,0,0,0,0,0,0,0,0,0,0,0,0,0,0,0,0,0,0,0,0,0,0,0,0,0,0,0,0,0,0,0,0,0,0,0,0,0,0,0,0,0,0,0,0,0,0,0,0,0,0,0,0,0,0,0,0,0,0,0,0,0,0,0,0,0,0,0,0,0,0,0],"split_type":[0,0,0,0,0,0,0,0,0,0,0,0,0,0,0,0,0,0,0,0,0,0,0,0,0,0,0,0,0,0,0,0,0,0,0,0,0,0,0,0,0,0,0,0,0,0,0,0,0,0,0,0,0,0,0,0,0,0,0,0,0,0,0,0,0,0,0,0,0,0,0,0,0,0,0,0,0,0,0,0,0,0,0,0,0,0,0,0,0,0,0,0,0,0,0,0,0,0,0,0,0,0,0,0,0,0,0,0,0,0,0,0,0,0,0,0,0,0,0,0,0,0,0,0,0,0,0,0,0,0,0,0,0,0,0,0,0,0,0,0,0,0,0,0,0,0,0,0,0,0,0,0,0,0,0,0,0,0,0,0,0,0,0,0,0,0,0,0,0,0,0,0,0,0,0,0,0,0,0,0,0,0,0,0,0,0,0,0,0,0,0],"sum_hessian":[2.6052E4,9.653E3,1.6399E4,2.099E3,7.554E3,8.362E3,8.037E3,2.74E2,1.825E3,1.625E3,5.929E3,3.261E3,5.101E3,4.974E3,3.063E3,5.4E1,2.2E2,8.23E2,1.002E3,9.19E2,7.06E2,3.076E3,2.853E3,2.226E3,1.035E3,6.93E2,4.408E3,3.66E2,4.608E3,1.39E3,1.673E3,7.1E1,7.52E2,9.25E2,7.7E1,3.26E2,5.93E2,5.41E2,1.65E2,1.525E3,1.551E3,5.27E2,2.326E3,3.72E2,1.854E3,5.32E2,5.03E2,4.81E2,2.12E2,7.94E2,3.614E3,2.22E2,1.44E2,7.79E2,3.829E3,7.53E2,6.37E2,3E2,1.373E3,2.93E2,4.59E2,1.32E2,7.93E2,2.72E2,5.4E1,2.54E2,3.39E2,1.79E2,3.62E2,5.01E2,1.024E3,7.37E2,8.14E2,2.95E2,2.32E2,1.284E3,1.042E3,2.81E2,9.1E1,5.25E2,1.329E3,2.95E2,2.37E2,2.56E2,2.47E2,2.48E2,2.33E2,1.09E2,1.03E2,1.7E2,6.24E2,6.35E2,2.979E3,1.62E2,6E1,3.81E2,3.98E2,7.67E2,3.062E3,2.76E2,4.77E2,2.27E2,4.1E2,1.62E2,1.38E2,6.15E2,7.58E2,1.49E2,1.44E2,8.1E1,3.78E2,2.66E2,5.27E2,5.9E1,1.95E2,1.07E2,7.2E1,1.28E2,3.73E2,7.53E2,2.71E2,2.38E2,4.99E2,5.46E2,2.68E2,5.9E1,2.36E2,1.33E2,9.9E1,3.95E2,8.89E2,4.28E2,6.14E2,2.1E2,7.1E1,4.5E1,4.6E1,1.24E2,4.01E2,8.21E2,5.08E2,1.25E2,1.7E2,1.36E2,1.01E2,9.4E1,1.62E2,7.7E1,1.7E2,1.27E2,1.21E2,1.06E2,1.27E2,5.3E1,5.6E1,5.4E1,4.9E1,1.14E2,5.6E1,4.02E2,2.22E2,5.27E2,1.08E2,6.02E2,2.377E3,1.11E2,5.1E1,2.91E2,9E1,2.12E2,1.86E2,5.28E2,2.39E2,1.316E3,1.746E3,9.6E1,1.8E2,1.48E2,3.29E2,6.2E1,1.65E2,1.06E2,3.04E2,8.6E1,7.6E1,6.8E1,7E1,4.68E2,1.47E2,2.03E2,5.55E2],"tree_param":{"num_deleted":"0","num_feature":"9","num_nodes":"191","size_leaf_vector":"1"}},{"base_weights":[3.5792517E-3,4.4520554E-1,-2.3721635E0,1.3891132E0,-3.3755732E-1,2.4626357E-2,-3.7856166E0,1.2625649E0,1.4760177E0,-2.5035688E-1,-8.8767534E-1,-5.250213E-1,2.9612905E-1,-1.2965683E0,-3.4842882E0,2.4671371E-1,2.6988456E-1,1.399314E0,1.5534226E0,-1.021927E-1,-3.8180906E-1,-2.3057392E-1,-1.23498656E-1,3.861435E-1,-1.1518474E-2,-3.1395352E0,-1.2557921E0,2.7378497E-1,2.912832E-1,3.3540204E-1,1.4912137E0,-2.4506316E-2,-9.7172715E-2,-4.3426424E-1,1.6043117E-2,2.867786E-1,9.6603565E-2,-3.6078908E0,-1.9140291E0,3.0832535E-1,2.8786576E-1,2.6063748E-2,-3.5489284E-2,-1.4600223E-1,-5.7115585E-1,3.1651434E-2,8.294364E-2,-3.277376E0,-1.4319669E0,-1.478169E0,-4.6955228E-1,2.2918265E-3,1.1046599E-2,-3.0518327E-2,-2.8460292E-2,-8.933791E-2,-1.2678888E-1,-6.9347775E-1,-3.382957E-1,-3.3204708E-1,-2.5794384E-1],"categories":[],"categories_nodes":[],"categories_segments":[],"categories_sizes":[],"default_left":[0,0,0,0,0,0,0,0,0,0,0,0,0,0,0,0,0,0,0,0,0,0,0,0,0,0,0,0,0,0,0,0,0,0,0,0,0,0,0,0,0,0,0,0,0,0,0,0,0,0,0,0,0,0,0,0,0,0,0,0,0],"id":8,"left_children":[1,3,5,7,9,11,13,15,17,19,21,-1,23,-1,25,-1,-1,27,29,31,33,-1,-1,35,-1,37,-1,-1,-1,-1,39,41,-1,43,-1,45,-1,47,49,-1,-1,51,-1,53,55,-1,-1,57,-1,59,-1,-1,-1,-1,-1,-1,-1,-1,-1,-1,-1],"loss_changes":[2.7335615E4,1.6233133E4,1.3835664E4,1.07671875E2,5.759518E2,1.0914023E3,2.0653672E3,8.566406E0,3.284961E1,2.0191284E2,1.17010376E2,0E0,4.3834137E1,0E0,2.2087969E3,0E0,0E0,3.165039E0,2.0003418E1,1.4532216E2,1.3318518E2,0E0,0E0,1.0421097E1,0E0,1.1760547E3,0E0,0E0,0E0,0E0,2.8969727E0,3.1374502E1,0E0,1.9461542E2,0E0,8.879349E0,0E0,1.72575E3,1.0466431E2,0E0,0E0,1.2982581E0,0E0,1.706314E-2,2.5858276E1,0E0,0E0,4.0546484E2,0E0,7.7401733E0,0E0,0E0,0E0,0E0,0E0,0E0,0E0,0E0,0E0,0E0,0E0],"parents":[2147483647,0,0,1,1,2,2,3,3,4,4,5,5,6,6,7,7,8,8,9,9,10,10,12,12,14,14,17,17,18,18,19,19,20,20,23,23,25,25,30,30,31,31,33,33,35,35,37,37,38,38,41,41,43,43,44,44,47,47,49,49],"right_children":[2,4,6,8,10,12,14,16,18,20,22,-1,24,-1,26,-1,-1,28,30,32,34,-1,-1,36,-1,38,-1,-1,-1,-1,40,42,-1,44,-1,46,-1,48,50,-1,-1,52,-1,54,56,-1,-1,58,-1,60,-1,-1,-1,-1,-1,-1,-1,-1,-1,-1,-1],"split_conditions":[1E0,1.0089E3,3.6E1,1.0056E3,5.2E0,1.0017E3,8E-1,5.1E1,4.7E1,1.4E0,4.2E1,-5.250213E-1,1.0198E3,-1.2965683E0,1.0168E3,2.4671371E-1,2.6988456E-1,1.0073E3,4.9E1,7.1E1,1.0198E3,-2.3057392E-1,-1.23498656E-1,1.0168E3,-1.1518474E-2,1.0108E3,-1.2557921E0,2.7378497E-1,2.912832E-1,3.3540204E-1,6.1E1,1.0179E3,-9.7172715E-2,1.0108E3,1.6043117E-2,1.7E1,9.6603565E-2,1.0101E3,4.2E1,3.0832535E-1,2.8786576E-1,5.3E1,-3.5489284E-2,2.4E1,1.7E1,3.1651434E-2,8.294364E-2,6.7E1,-1.4319669E0,3.9E1,-4.6955228E-1,2.2918265E-3,1.1046599E-2,-3.0518327E-2,-2.8460292E-2,-8.933791E-2,-1.2678888E-1,-6.9347775E-1,-3.382957E-1,-3.3204708E-1,-2.5794384E-1],"split_indices":[7,2,1,2,4,2,4,1,1,4,1,0,2,0,2,0,0,2,1,1,2,0,0,2,0,2,0,0,0,0,1,2,0,2,0,1,0,2,1,0,0,1,0,1,1,0,0,1,0,1,0,0,0,0,0,0,0,0,0,0,0],"split_type":[0,0,0,0,0,0,0,0,0,0,0,0,0,0,0,0,0,0,0,0,0,0,0,0,0,0,0,0,0,0,0,0,0,0,0,0,0,0,0,0,0,0,0,0,0,0,0,0,0,0,0,0,0,0,0,0,0,0,0,0,0],"sum_hessian":[2.6052E4,2.1969E4,4.083E3,9.959E3,1.201E4,1.515E3,2.568E3,4.061E3,5.898E3,1.0368E4,1.642E3,1.4E2,1.375E3,2.56E2,2.312E3,3.056E3,1.005E3,2.972E3,2.926E3,4.875E3,5.493E3,8.27E2,8.15E2,1.096E3,2.79E2,2.06E3,2.52E2,1.956E3,1.016E3,9.71E2,1.955E3,4.055E3,8.2E2,4.933E3,5.6E2,5.43E2,5.53E2,1.489E3,5.71E2,9.77E2,9.78E2,3.048E3,1.007E3,1.589E3,3.344E3,2.72E2,2.71E2,1.364E3,1.25E2,2.87E2,2.84E2,2.032E3,1.016E3,5.57E2,1.032E3,1.124E3,2.22E3,1.217E3,1.47E2,1.42E2,1.45E2],"tree_param":{"num_deleted":"0","num_feature":"9","num_nodes":"61","size_leaf_vector":"1"}},{"base_weights":[2.6669856E-3,-1.2264376E0,1.3050463E1,-1.7366017E-1,-3.8573499E0,8.058938E0,1.4522214E1,4.629203E-1,-2.2926886E0,-2.0307525E-1,-4.055561E0,5.7952285E0,4.160313E0,1.3892753E1,1.9165813E1,-5.590181E-1,7.733502E-1,-4.9519963E0,-1.1158963E0,-3.7627559E0,-4.2633677E0,1.0902025E0,1.5578526E0,1.4928348E1,9.568223E0,4.662788E0,4.8132706E0,9.398686E-1,4.0419194E-1,-1.8541864E0,-4.1089635E0,-6.9438165E-1,-1.5415648E0,-1.0015363E0,-3.6058073E0,-4.8230376E0,-4.013839E0,1.2945652E1,1.9670729E1,1.5779378E0,3.815726E0,1.2116325E0,3.9058928E0,4.846767E-1,1.5852613E0,-2.6267394E-1,1.1034247E0,-3.4474013E0,-1.2675066E0,-5.4254717E-1,-4.6263322E-1,-9.6994E-1,-8.4311706E-1,-3.815092E0,-3.335005E0,-4.4187737E0,-1.0427938E0,-6.574756E-1,-4.3437576E0,2.0585049E1,1.2168278E1,2.4425312E1,5.2953167E0,4.6737853E-1,1.0638201E0,1.5673192E-1,-8.333028E-2,3.064157E-1,4.4133994E-1,3.145102E-1,6.039829E-2,-8.590894E-1,-3.9615953E-1,7.733064E-2,-1.4261852E-1,-3.963772E-1,-1.348822E-1,-6.573271E-1,-9.0655035E-1,-5.50212E-1,-7.714002E-1,-1.0457668E0,-7.0544946E-1,-8.1570476E-1,-8.9458245E-1,4.8634057E0,6.081605E-1,2.2179625E0,3.7668304E0,4.180958E0,5.0739307E0,2.3714027E0,9.214708E-1],"categories":[],"categories_nodes":[],"categories_segments":[],"categories_sizes":[],"default_left":[0,0,0,0,0,0,0,0,0,0,0,0,0,0,0,0,0,0,0,0,0,0,0,0,0,0,0,0,0,0,0,0,0,0,0,0,0,0,0,0,0,0,0,0,0,0,0,0,0,0,0,0,0,0,0,0,0,0,0,0,0,0,0,0,0,0,0,0,0,0,0,0,0,0,0,0,0,0,0,0,0,0,0,0,0,0,0,0,0,0,0,0,0],"id":9,"left_children":[1,3,5,7,9,11,13,15,17,-1,19,21,-1,23,25,-1,27,29,31,33,35,-1,-1,37,39,-1,41,43,45,-1,47,49,51,-1,53,55,57,59,61,-1,-1,-1,63,65,67,-1,69,71,-1,-1,73,-1,75,77,79,81,-1,-1,83,85,87,89,91,-1,-1,-1,-1,-1,-1,-1,-1,-1,-1,-1,-1,-1,-1,-1,-1,-1,-1,-1,-1,-1,-1,-1,-1,-1,-1,-1,-1,-1,-1],"loss_changes":[4.178307E5,6.595022E4,1.6360719E4,2.294235E4,3.8292031E3,1.467725E4,4.793375E3,1.3230052E4,1.2290094E4,0E0,3.710078E2,2.5748828E2,0E0,6.7002188E3,1.2033164E4,0E0,7.3371436E2,4.3493184E3,4.878645E2,4.9953125E2,4.991797E2,0E0,0E0,1.1320094E4,4.6066133E3,0E0,2.94281E1,2.416727E3,4.4618716E3,0E0,1.4672324E3,6.400309E2,3.126719E3,0E0,1.2080078E2,1.57125E2,6.026367E2,4.9220938E3,2.4544672E4,0E0,0E0,0E0,5.408954E1,1.3011146E3,1.0908789E2,0E0,9.92095E2,9.628574E2,0E0,0E0,2.621238E2,0E0,2.1383466E2,4.8647266E2,3.04875E2,3.910381E2,0E0,0E0,4.2289062E1,5.0985586E3,5.4919375E3,3.7060938E2,3.5616333E2,0E0,0E0,0E0,0E0,0E0,0E0,0E0,0E0,0E0,0E0,0E0,0E0,0E0,0E0,0E0,0E0,0E0,0E0,0E0,0E0,0E0,0E0,0E0,0E0,0E0,0E0,0E0,0E0,0E0,0E0],"parents":[2147483647,0,0,1,1,2,2,3,3,4,4,5,5,6,6,7,7,8,8,10,10,11,11,13,13,14,14,16,16,17,17,18,18,19,19,20,20,23,23,24,24,26,26,27,27,28,28,30,30,31,31,32,32,34,34,35,35,36,36,37,37,38,38,42,42,43,43,44,44,46,46,47,47,50,50,52,52,53,53,54,54,55,55,58,58,59,59,60,60,61,61,62,62],"right_children":[2,4,6,8,10,12,14,16,18,-1,20,22,-1,24,26,-1,28,30,32,34,36,-1,-1,38,40,-1,42,44,46,-1,48,50,52,-1,54,56,58,60,62,-1,-1,-1,64,66,68,-1,70,72,-1,-1,74,-1,76,78,80,82,-1,-1,84,86,88,90,92,-1,-1,-1,-1,-1,-1,-1,-1,-1,-1,-1,-1,-1,-1,-1,-1,-1,-1,-1,-1,-1,-1,-1,-1,-1,-1,-1,-1,-1,-1],"split_conditions":[1E0,1E0,8E-1,1E0,8E-1,1E0,2.9E0,8E-1,1.4E0,-2.0307525E-1,1.9E0,1E0,4.160313E0,2.8E0,1E0,-5.590181E-1,2.8E0,8E-1,2.8E0,9E-1,2.6E0,1.0902025E0,1.5578526E0,1.4E0,1E0,4.662788E0,3.4E0,1.4E0,2.9E0,-1.8541864E0,1.3E0,1.5E0,2.9E0,-1.0015363E0,1.3E0,2.5E0,2.9E0,9E-1,1E0,1.5779378E0,3.815726E0,1.2116325E0,3.6E0,1.3E0,2.6E0,-2.6267394E-1,5.2E0,1.1E0,-1.2675066E0,-5.4254717E-1,1.9E0,-9.6994E-1,3.3E0,1.1E0,1.4E0,2.1E0,-1.0427938E0,-6.574756E-1,3.4E0,1E0,1E0,1.5E0,1.5E0,4.6737853E-1,1.0638201E0,1.5673192E-1,-8.333028E-2,3.064157E-1,4.4133994E-1,3.145102E-1,6.039829E-2,-8.590894E-1,-3.9615953E-1,7.733064E-2,-1.4261852E-1,-3.963772E-1,-1.348822E-1,-6.573271E-1,-9.0655035E-1,-5.50212E-1,-7.714002E-1,-1.0457668E0,-7.0544946E-1,-8.1570476E-1,-8.9458245E-1,4.8634057E0,6.081605E-1,2.2179625E0,3.7668304E0,4.180958E0,5.0739307E0,2.3714027E0,9.214708E-1],"split_indices":[6,8,4,7,4,8,4,4,4,0,4,7,0,4,8,0,4,4,4,4,4,0,0,4,8,0,4,4,4,0,4,4,4,0,4,4,4,4,8,0,0,0,4,4,4,0,4,4,0,0,4,0,4,4,4,4,0,0,4,8,8,4,4,0,0,0,0,0,0,0,0,0,0,0,0,0,0,0,0,0,0,0,0,0,0,0,0,0,0,0,0,0,0],"split_type":[0,0,0,0,0,0,0,0,0,0,0,0,0,0,0,0,0,0,0,0,0,0,0,0,0,0,0,0,0,0,0,0,0,0,0,0,0,0,0,0,0,0,0,0,0,0,0,0,0,0,0,0,0,0,0,0,0,0,0,0,0,0,0,0,0,0,0,0,0,0,0,0,0,0,0,0,0,0,0,0,0,0,0,0,0,0,0,0,0,0,0,0,0],"sum_hessian":[2.6052E4,2.381E4,2.242E3,1.7006E4,6.804E3,5.12E2,1.73E3,1.3078E4,3.928E3,4.44E2,6.36E3,4.36E2,7.6E1,1.527E3,2.03E2,1.137E3,1.1941E4,1.204E3,2.724E3,2.648E3,3.712E3,3.75E2,6.1E1,1.23E3,2.97E2,1.57E2,4.6E1,8.228E3,3.713E3,1.95E2,1.009E3,1.37E3,1.354E3,2.93E2,2.355E3,1.139E3,2.573E3,8.7E2,3.6E2,2.54E2,4.3E1,1.7E1,2.9E1,4.826E3,3.402E3,1.074E3,2.639E3,7.8E2,2.29E2,1.4E2,1.23E3,2.35E2,1.119E3,1.321E3,1.034E3,5.66E2,5.73E2,8.07E2,1.766E3,7.8E1,7.92E2,2.7E2,9E1,1.5E1,1.4E1,3.624E3,1.202E3,3.137E3,2.65E2,1.664E3,9.75E2,4.93E2,2.87E2,2.8E2,9.5E2,1.43E2,9.76E2,7.64E2,5.57E2,4.91E2,5.43E2,2.94E2,2.72E2,5.89E2,1.177E3,6.4E1,1.4E1,6.84E2,1.08E2,6.2E1,2.08E2,7E0,8.3E1],"tree_param":{"num_deleted":"0","num_feature":"9","num_nodes":"93","size_leaf_vector":"1"}},{"base_weights":[3.217665E-3,2.525094E0,-1.4813066E0,-3.3014262E0,4.1443086E0,-6.644497E-1,-2.331007E0,-1.6426052E0,-8.102497E0,1.1447486E1,2.141086E0,-1.1090277E0,2.679124E-1,-1.8185014E0,-2.7754388E0,4.1465044E-1,-3.8477473E0,9.9923354E-1,-1.0036122E1,1.33769E1,4.055587E0,2.635046E0,-2.4210563E-1,-2.1600072E0,-4.277242E-1,-1.1350942E-1,2.9348154E0,-2.815503E0,-1.2577875E0,-3.5947022E0,-2.0256114E0,-1.1969498E0,8.7120193E-1,-2.7917917E0,-1.185551E0,-1.1955959E1,-8.824866E0,9.177985E0,1.6703365E1,3.1772351E0,3.793931E0,6.751526E-1,3.279677E0,-4.246998E0,5.10136E0,-1.7148178E0,-3.3643546E0,-3.1372612E0,1.4232663E-2,-1.0366635E0,6.798247E-1,7.687603E0,-5.435404E0,-3.5396197E0,-1.8047127E0,-1.7077143E0,2.3463552E0,-4.2444563E0,-3.0537994E0,-3.4568653E0,-1.225323E0,2.0063705E0,-1.3875118E-1,-1.0499223E0,-6.773781E-1,-1.7210566E0,-1.2277121E1,-9.742329E0,-1.6913903E0,2.0960348E0,8.61975E0,2.0137327E0,1.7773115E1,5.680977E0,1.8726625E0,-1.0286145E0,2.0492983E0,4.338022E0,2.7185092E0,7.162464E0,-6.9752827E0,-6.4919124E0,5.528826E0,-2.8121724E0,-5.6712145E-1,-1.4987268E0,-1.0587165E1,-2.6323195E0,-6.1214447E0,4.335357E-1,-1.8045388E0,3.3609307E-1,-2.6008132E0,-8.379878E-1,1.1491474E0,2.9815357E0,5.85915E0,-2.7650344E0,-4.5705996E0,-4.289714E0,-3.3548033E0,-1.448969E0,-4.6050754E0,-2.719744E0,-8.876972E-1,6.863624E0,-3.830687E0,-1.5435065E0,-4.7407594E0,-4.0322924E0,-1.8744078E0,-2.9776719E0,-4.8114147E0,8.949928E-1,-2.9573734E0,4.8012963E-1,-3.8144388E-3,-1.1091379E0,1.8474777E-1,4.3555942E-1,-4.9369842E-1,-2.059469E0,-2.6053922E0,-1.7300446E0,-2.6730692E0,1.3538712E0,1.7686291E0,4.0855236E0,2.7798104E0,2.9875097E0,1.0956491E0,4.187123E-1,-1.198544E-2,1.13081865E-1,-6.447473E-1,1.4546588E-1,9.196221E-1,1.4222672E0,4.336221E-1,2.336584E-2,6.6593426E-1,3.8863797E0,1.208517E0,-1.7784947E0,-1.1664885E0,-1.9518641E0,-8.239032E-1,1.3133692E0,3.1424367E-1,-2.4336965E-1,-7.68555E-1,-3.8787076E-1,7.5388655E-2,-5.4222625E-1,-8.060742E-3,-1.8187374E0,-2.4208205E0,-7.306997E-1,-3.0850002E-1,-6.3836575E-1,-2.7325938E0,-3.0346474E-2,1.2681006E-1,9.361503E-2,-1.0359781E0,-3.613665E-1,5.259615E-1,-2.864876E-1,-5.7702774E-1,-1.21100105E-1,-2.1613185E-1,3.0466405E-1,1.5153228E-1,1.6235768E0,6.451925E-1,-9.5716876E-1,-3.1031495E-1,-7.172217E-1,-1.4776539E0,-4.9854404E-1,-6.8884015E-1,-2.2536738E-1,-5.1154834E-1,-1.3968018E0,-7.6937455E-1,3.6668933E-3,-8.784546E-1,-3.349656E-1,1.14490904E-1,2.283608E0,-1.5740378E-2,3.4527907E-1,-1.4798708E0,-3.1869605E-2,-6.1716753E-1,-7.548883E-1,-1.0214673E0,-6.7222494E-1,-1.0671389E0,-7.177598E-1,-1.6691163E-1,-8.72139E-1,-4.8088798E-1,-9.1800016E-1,-1.5135087E0,-5.518005E-1,4.8430234E-1,-2.8143385E-1,-7.044596E-1],"categories":[],"categories_nodes":[],"categories_segments":[],"categories_sizes":[],"default_left":[0,0,0,0,0,0,0,0,0,0,0,0,0,0,0,0,0,0,0,0,0,0,0,0,0,0,0,0,0,0,0,0,0,0,0,0,0,0,0,0,0,0,0,0,0,0,0,0,0,0,0,0,0,0,0,0,0,0,0,0,0,0,0,0,0,0,0,0,0,0,0,0,0,0,0,0,0,0,0,0,0,0,0,0,0,0,0,0,0,0,0,0,0,0,0,0,0,0,0,0,0,0,0,0,0,0,0,0,0,0,0,0,0,0,0,0,0,0,0,0,0,0,0,0,0,0,0,0,0,0,0,0,0,0,0,0,0,0,0,0,0,0,0,0,0,0,0,0,0,0,0,0,0,0,0,0,0,0,0,0,0,0,0,0,0,0,0,0,0,0,0,0,0,0,0,0,0,0,0,0,0,0,0,0,0,0,0,0,0,0,0,0,0,0,0,0,0,0,0,0,0,0,0,0,0,0,0,0,0],"id":10,"left_children":[1,3,5,7,9,11,13,15,17,19,21,23,25,27,29,31,33,-1,35,37,39,41,43,45,47,49,51,53,55,57,59,-1,61,63,-1,65,67,69,71,-1,73,75,77,79,81,83,85,87,89,91,93,95,97,99,101,103,105,107,109,111,113,115,117,-1,119,-1,121,123,-1,-1,125,-1,127,129,131,133,135,137,139,141,143,145,147,149,151,153,155,157,159,161,163,165,167,169,171,-1,173,-1,175,177,179,181,183,185,187,189,191,193,195,197,199,201,203,205,207,-1,-1,-1,-1,-1,-1,-1,-1,-1,-1,-1,-1,-1,-1,-1,-1,-1,-1,-1,-1,-1,-1,-1,-1,-1,-1,-1,-1,-1,-1,-1,-1,-1,-1,-1,-1,-1,-1,-1,-1,-1,-1,-1,-1,-1,-1,-1,-1,-1,-1,-1,-1,-1,-1,-1,-1,-1,-1,-1,-1,-1,-1,-1,-1,-1,-1,-1,-1,-1,-1,-1,-1,-1,-1,-1,-1,-1,-1,-1,-1,-1,-1,-1,-1,-1,-1,-1,-1,-1,-1,-1,-1,-1,-1],"loss_changes":[9.75406E4,9.109326E4,1.1381426E4,1.6711332E4,1.10504305E5,3.466825E3,1.8257969E3,7.0876724E3,1.3701891E4,2.3135797E4,6.9814414E3,4.0539888E3,2.7478308E3,2.085005E3,2.636082E3,2.3688333E3,1.6395342E3,0E0,9.874375E2,1.7850875E4,9.860215E2,6.2036445E3,2.182827E4,1.1882637E3,4.1158467E3,1.7320266E3,1.3488059E4,9.773262E2,3.884496E3,7.092754E2,2.5718047E3,0E0,8.6700745E2,2.605261E3,0E0,8.697266E1,1.6173828E1,3.2546875E2,4.9170312E3,0E0,1.1930347E3,2.8513777E3,2.1832969E3,1.8197736E4,2.2015508E3,2.0487573E3,8.069178E3,7.101826E2,2.2550764E3,2.34776E3,9.070644E2,2.7641924E3,8.2923804E2,9.401758E1,5.541942E2,1.7635737E3,7.448587E3,1.2406777E3,1.2907227E3,5.0884082E2,5.305728E3,2.8434277E2,2.3087947E3,0E0,1.3912548E3,0E0,1.0486719E2,1.8905469E2,0E0,0E0,1.0796484E2,0E0,6.061125E3,2.3156055E2,7.0992004E1,1.9053203E3,2.2676655E3,7.6814043E3,3.8443496E3,1.4352339E3,9.8011523E2,8.3821655E1,1.7232891E3,1.363252E3,1.0332255E3,8.450895E2,1.6858691E2,4.5510547E2,1.4808606E3,2.820997E2,4.2520864E3,2.870348E3,1.656211E2,1.6327484E1,1.4122766E2,0E0,1.00870654E3,0E0,6.600513E1,3.0270898E2,4.0121582E1,1.7606067E2,8.6767334E1,4.3597803E3,1.3537205E3,4.8701064E3,2.25372E3,3.111935E2,2.5914648E2,5.1919336E2,9.097521E2,4.6360498E2,9.280664E1,3.6323113E3,6.912637E2,0E0,0E0,0E0,0E0,0E0,0E0,0E0,0E0,0E0,0E0,0E0,0E0,0E0,0E0,0E0,0E0,0E0,0E0,0E0,0E0,0E0,0E0,0E0,0E0,0E0,0E0,0E0,0E0,0E0,0E0,0E0,0E0,0E0,0E0,0E0,0E0,0E0,0E0,0E0,0E0,0E0,0E0,0E0,0E0,0E0,0E0,0E0,0E0,0E0,0E0,0E0,0E0,0E0,0E0,0E0,0E0,0E0,0E0,0E0,0E0,0E0,0E0,0E0,0E0,0E0,0E0,0E0,0E0,0E0,0E0,0E0,0E0,0E0,0E0,0E0,0E0,0E0,0E0,0E0,0E0,0E0,0E0,0E0,0E0,0E0,0E0,0E0,0E0,0E0,0E0,0E0,0E0,0E0,0E0],"parents":[2147483647,0,0,1,1,2,2,3,3,4,4,5,5,6,6,7,7,8,8,9,9,10,10,11,11,12,12,13,13,14,14,15,15,16,16,18,18,19,19,20,20,21,21,22,22,23,23,24,24,25,25,26,26,27,27,28,28,29,29,30,30,32,32,33,33,35,35,36,36,37,37,38,38,40,40,41,41,42,42,43,43,44,44,45,45,46,46,47,47,48,48,49,49,50,50,51,51,52,52,53,53,54,54,55,55,56,56,57,57,58,58,59,59,60,60,61,61,62,62,64,64,66,66,67,67,70,70,72,72,73,73,74,74,75,75,76,76,77,77,78,78,79,79,80,80,81,81,82,82,83,83,84,84,85,85,86,86,87,87,88,88,89,89,90,90,91,91,92,92,93,93,94,94,96,96,98,98,99,99,100,100,101,101,102,102,103,103,104,104,105,105,106,106,107,107,108,108,109,109,110,110,111,111,112,112,113,113,114,114],"right_children":[2,4,6,8,10,12,14,16,18,20,22,24,26,28,30,32,34,-1,36,38,40,42,44,46,48,50,52,54,56,58,60,-1,62,64,-1,66,68,70,72,-1,74,76,78,80,82,84,86,88,90,92,94,96,98,100,102,104,106,108,110,112,114,116,118,-1,120,-1,122,124,-1,-1,126,-1,128,130,132,134,136,138,140,142,144,146,148,150,152,154,156,158,160,162,164,166,168,170,172,-1,174,-1,176,178,180,182,184,186,188,190,192,194,196,198,200,202,204,206,208,-1,-1,-1,-1,-1,-1,-1,-1,-1,-1,-1,-1,-1,-1,-1,-1,-1,-1,-1,-1,-1,-1,-1,-1,-1,-1,-1,-1,-1,-1,-1,-1,-1,-1,-1,-1,-1,-1,-1,-1,-1,-1,-1,-1,-1,-1,-1,-1,-1,-1,-1,-1,-1,-1,-1,-1,-1,-1,-1,-1,-1,-1,-1,-1,-1,-1,-1,-1,-1,-1,-1,-1,-1,-1,-1,-1,-1,-1,-1,-1,-1,-1,-1,-1,-1,-1,-1,-1,-1,-1,-1,-1,-1,-1],"split_conditions":[8E0,3E0,1.4E1,1E0,4E0,1.2E1,1.7E1,1.5E0,2E0,1E0,1E0,2.46E1,1E0,1.5E1,1.5E0,1.62E1,2.66E1,9.9923354E-1,1.5E0,2.66E1,8E-1,5E0,6E0,1.1E1,8E-1,2.66E1,1.3E1,2.8E1,1E0,2.91E1,2.29E1,-1.1969498E0,2.91E1,1.62E1,-1.185551E0,1.62E1,2.29E1,1.4E0,8E-1,3.1772351E0,2.64E1,2.66E1,6E0,5E0,8E-1,2.9E0,1E0,1E0,1E0,2.29E1,9E-1,1.62E1,1.62E1,1.46E1,1E0,2.66E1,1.6E1,1.62E1,1.9E1,1.62E1,2.66E1,1.4E0,2.96E1,-1.0499223E0,2.29E1,-1.7210566E0,9E-1,1.62E1,-1.6913903E0,2.0960348E0,1.4E1,2.0137327E0,1.5E0,1.1E0,3.54E1,2.33E1,1.5E0,2.66E1,1.62E1,1.62E1,1.5E0,7E0,7E0,1.62E1,9E0,1.62E1,1.62E1,1E1,1.1E1,1.1E0,1E1,1.3E1,1.1E0,1.3E1,1.3E1,2.9815357E0,2.66E1,-2.7650344E0,3.54E1,1E0,1.1E0,1.5E0,8E-1,1.62E1,1.5E0,2.66E1,1.5E0,1.9E1,1.8E1,1.1E0,9E-1,1.8E1,1E0,1.8E1,1.8E1,4.8012963E-1,-3.8144388E-3,-1.1091379E0,1.8474777E-1,4.3555942E-1,-4.9369842E-1,-2.059469E0,-2.6053922E0,-1.7300446E0,-2.6730692E0,1.3538712E0,1.7686291E0,4.0855236E0,2.7798104E0,2.9875097E0,1.0956491E0,4.187123E-1,-1.198544E-2,1.13081865E-1,-6.447473E-1,1.4546588E-1,9.196221E-1,1.4222672E0,4.336221E-1,2.336584E-2,6.6593426E-1,3.8863797E0,1.208517E0,-1.7784947E0,-1.1664885E0,-1.9518641E0,-8.239032E-1,1.3133692E0,3.1424367E-1,-2.4336965E-1,-7.68555E-1,-3.8787076E-1,7.5388655E-2,-5.4222625E-1,-8.060742E-3,-1.8187374E0,-2.4208205E0,-7.306997E-1,-3.0850002E-1,-6.3836575E-1,-2.7325938E0,-3.0346474E-2,1.2681006E-1,9.361503E-2,-1.0359781E0,-3.613665E-1,5.259615E-1,-2.864876E-1,-5.7702774E-1,-1.21100105E-1,-2.1613185E-1,3.0466405E-1,1.5153228E-1,1.6235768E0,6.451925E-1,-9.5716876E-1,-3.1031495E-1,-7.172217E-1,-1.4776539E0,-4.9854404E-1,-6.8884015E-1,-2.2536738E-1,-5.1154834E-1,-1.3968018E0,-7.6937455E-1,3.6668933E-3,-8.784546E-1,-3.349656E-1,1.14490904E-1,2.283608E0,-1.5740378E-2,3.4527907E-1,-1.4798708E0,-3.1869605E-2,-6.1716753E-1,-7.548883E-1,-1.0214673E0,-6.7222494E-1,-1.0671389E0,-7.177598E-1,-1.6691163E-1,-8.72139E-1,-4.8088798E-1,-9.1800016E-1,-1.5135087E0,-5.518005E-1,4.8430234E-1,-2.8143385E-1,-7.044596E-1],"split_indices":[5,5,5,7,5,5,5,4,5,7,7,0,7,5,4,0,0,0,4,0,4,5,5,5,4,0,5,0,7,0,0,0,0,0,0,0,0,4,4,0,0,0,5,5,4,4,7,7,7,0,4,0,0,0,7,0,5,0,5,0,0,4,0,0,0,0,4,0,0,0,0,0,4,4,0,0,4,0,0,0,4,5,5,0,5,0,0,5,5,4,5,5,4,5,5,0,0,0,0,7,4,4,4,0,4,0,4,5,5,4,4,5,7,5,5,0,0,0,0,0,0,0,0,0,0,0,0,0,0,0,0,0,0,0,0,0,0,0,0,0,0,0,0,0,0,0,0,0,0,0,0,0,0,0,0,0,0,0,0,0,0,0,0,0,0,0,0,0,0,0,0,0,0,0,0,0,0,0,0,0,0,0,0,0,0,0,0,0,0,0,0,0,0,0,0,0,0,0,0,0,0,0,0,0,0,0,0,0,0],"split_type":[0,0,0,0,0,0,0,0,0,0,0,0,0,0,0,0,0,0,0,0,0,0,0,0,0,0,0,0,0,0,0,0,0,0,0,0,0,0,0,0,0,0,0,0,0,0,0,0,0,0,0,0,0,0,0,0,0,0,0,0,0,0,0,0,0,0,0,0,0,0,0,0,0,0,0,0,0,0,0,0,0,0,0,0,0,0,0,0,0,0,0,0,0,0,0,0,0,0,0,0,0,0,0,0,0,0,0,0,0,0,0,0,0,0,0,0,0,0,0,0,0,0,0,0,0,0,0,0,0,0,0,0,0,0,0,0,0,0,0,0,0,0,0,0,0,0,0,0,0,0,0,0,0,0,0,0,0,0,0,0,0,0,0,0,0,0,0,0,0,0,0,0,0,0,0,0,0,0,0,0,0,0,0,0,0,0,0,0,0,0,0,0,0,0,0,0,0,0,0,0,0,0,0,0,0,0,0,0,0],"sum_hessian":[2.6052E4,9.653E3,1.6399E4,2.099E3,7.554E3,8.362E3,8.037E3,1.561E3,5.38E2,1.625E3,5.929E3,5.662E3,2.7E3,3.735E3,4.302E3,8.08E2,7.53E2,6.9E1,4.69E2,1.288E3,3.37E2,4.911E3,1.018E3,2.226E3,3.436E3,2.363E3,3.37E2,1.343E3,2.392E3,2.054E3,2.248E3,5.3E1,7.55E2,5.01E2,2.52E2,1.78E2,2.91E2,5.71E2,7.17E2,6E0,3.31E2,1.216E3,3.695E3,5.82E2,4.36E2,1.627E3,5.99E2,4.81E2,2.955E3,1.092E3,1.271E3,2.15E2,1.22E2,7.81E2,5.62E2,2.127E3,2.65E2,9.3E2,1.124E3,8.05E2,1.443E3,3.55E2,4E2,2.31E2,2.7E2,1.8E1,1.6E2,7.6E1,2.15E2,1.66E2,4.05E2,1.01E2,6.16E2,1.66E2,1.65E2,5.43E2,6.73E2,1.278E3,2.417E3,1.12E2,4.7E2,1.5E1,4.21E2,8.31E2,7.96E2,4.77E2,1.22E2,4.13E2,6.8E1,2.402E3,5.53E2,5.82E2,5.1E2,3E2,9.71E2,4.2E1,1.73E2,1E1,1.12E2,1.5E2,6.31E2,5E2,6.2E1,9.51E2,1.176E3,1.53E2,1.12E2,1.45E2,7.85E2,6.13E2,5.11E2,5.97E2,2.08E2,6.49E2,7.94E2,2.97E2,5.8E1,6.5E1,3.35E2,1.04E2,1.66E2,4.8E1,1.12E2,6.1E1,1.5E1,4.7E1,3.58E2,3.63E2,2.53E2,2E0,1.64E2,1.48E2,1.7E1,3.15E2,2.28E2,4.44E2,2.29E2,5.6E2,7.18E2,4.6E2,1.957E3,8E0,1.04E2,1.73E2,2.97E2,5E0,1E1,3.33E2,8.8E1,3.27E2,5.04E2,3.24E2,4.72E2,2.6E2,2.17E2,6.5E1,5.7E1,2.12E2,2.01E2,5E1,1.8E1,6.13E2,1.789E3,3.31E2,2.22E2,3.01E2,2.81E2,1.01E2,4.09E2,1.55E2,1.45E2,4.95E2,4.76E2,9.2E1,8.1E1,1.04E2,8E0,1.24E2,2.6E1,6.2E1,5.69E2,3.89E2,1.11E2,1.3E1,4.9E1,3.61E2,5.9E2,7.64E2,4.12E2,9.2E1,6.1E1,4.4E1,6.8E1,7.7E1,6.8E1,2.19E2,5.66E2,4.07E2,2.06E2,1.92E2,3.19E2,1.73E2,4.24E2,1.95E2,1.3E1,1.91E2,4.58E2,2.13E2,5.81E2],"tree_param":{"num_deleted":"0","num_feature":"9","num_nodes":"209","size_leaf_vector":"1"}},{"base_weights":[1.9434539E-3,-9.729254E-1,1.0350852E1,-6.800064E-1,-1.4920715E0,1.645061E1,7.4740644E0,-3.1855604E-1,-8.666586E-1,-6.6693985E-1,-2.2460713E0,3.207161E0,3.479426E0,7.2421026E0,3.6853986E0,-5.51722E-1,2.462663E-1,-7.1242315E-1,-1.8743281E0,-5.6034696E-1,-1.3346087E0,-1.7825701E0,-5.7786236E0,9.873734E0,6.1851406E0,-6.2280625E-1,-2.8217563E-2,-3.097559E-1,4.3002734E-1,-4.2655477E-1,-1.2109592E0,-2.3793929E0,-8.056732E-1,-4.4022393E-1,-1.9542159E-1,-1.5064516E0,-1.6828243E-1,-1.6585492E0,-1.9695553E0,-4.6146507E0,-1.5518842E0,1.2762531E0,1.52199745E1,6.7815895E0,1.1033839E0,-5.6033564E-1,-1.479622E-1,3.09216E-1,6.136696E-1,-5.9956145E-1,-3.3892384E-1,-3.1720912E-1,-1.0865756E0,-1.2030827E0,-1.9094559E0,-5.2069163E-1,-2.7559805E-1,-1.3640913E-1,-3.1741554E-1,-1.8211135E-1,-3.583232E-1,-1.9133825E0,-2.2961652E-1,-4.1430593E-1,-3.7312135E-1,-1.4354783E0,-2.5092024E-1,2.2452826E0,3.6488824E0,1.2463987E0,3.484113E0,-1.3219748E-1,-5.6037582E-2,7.20159E-2,4.153126E-2,1.1445286E-1,1.3050658E-1,-1.2388965E-1,-1.1566913E-1,-4.7187697E-2,-1.2762155E-1,-1.7456405E-1,-2.3893164E-1,-3.981478E-1,-2.915134E-1,-4.9953576E-2,-1.564964E-1,-2.260564E-2,-1.0456034E-1,-3.6789495E-1,-3.9688736E-1],"categories":[],"categories_nodes":[],"categories_segments":[],"categories_sizes":[],"default_left":[0,0,0,0,0,0,0,0,0,0,0,0,0,0,0,0,0,0,0,0,0,0,0,0,0,0,0,0,0,0,0,0,0,0,0,0,0,0,0,0,0,0,0,0,0,0,0,0,0,0,0,0,0,0,0,0,0,0,0,0,0,0,0,0,0,0,0,0,0,0,0,0,0,0,0,0,0,0,0,0,0,0,0,0,0,0,0,0,0,0,0],"id":11,"left_children":[1,3,5,7,9,11,13,15,17,19,21,-1,-1,23,-1,25,27,29,31,33,35,37,39,41,43,45,-1,-1,47,49,51,53,55,57,-1,59,-1,61,63,65,-1,-1,67,69,-1,71,-1,73,75,77,79,-1,81,-1,83,85,-1,-1,87,-1,-1,89,-1,-1,-1,-1,-1,-1,-1,-1,-1,-1,-1,-1,-1,-1,-1,-1,-1,-1,-1,-1,-1,-1,-1,-1,-1,-1,-1,-1,-1],"loss_changes":[2.6285434E5,3.619871E3,3.9236547E4,1.0268188E3,5.3415195E3,2.921875E0,3.7435938E3,6.831183E2,1.5589097E3,2.911864E2,7.336453E3,0E0,0E0,4.1001016E3,0E0,1.0706726E2,5.007329E2,1.2405098E3,7.170161E2,1.7674133E2,4.6532776E1,8.875195E1,1.1631016E3,7.8756445E3,3.8904688E2,2.245642E1,0E0,0E0,3.0338287E1,8.372662E1,1.4631152E2,1.5331792E3,6.925232E1,8.142261E1,0E0,6.922864E1,0E0,3.0896387E2,1.2852051E1,2.8326045E3,0E0,0E0,1.824332E3,3.1716816E3,0E0,5.7450256E1,0E0,4.223076E0,5.035553E-1,4.2645264E-1,1.13143555E2,0E0,5.4081543E1,0E0,2.655664E1,2.0231033E1,0E0,0E0,7.6551346E1,0E0,0E0,4.720215E0,0E0,0E0,0E0,0E0,0E0,0E0,0E0,0E0,0E0,0E0,0E0,0E0,0E0,0E0,0E0,0E0,0E0,0E0,0E0,0E0,0E0,0E0,0E0,0E0,0E0,0E0,0E0,0E0,0E0],"parents":[2147483647,0,0,1,1,2,2,3,3,4,4,5,5,6,6,7,7,8,8,9,9,10,10,13,13,15,15,16,16,17,17,18,18,19,19,20,20,21,21,22,22,23,23,24,24,25,25,28,28,29,29,30,30,31,31,32,32,33,33,35,35,37,37,38,38,39,39,42,42,43,43,45,45,47,47,48,48,49,49,50,50,52,52,54,54,55,55,58,58,61,61],"right_children":[2,4,6,8,10,12,14,16,18,20,22,-1,-1,24,-1,26,28,30,32,34,36,38,40,42,44,46,-1,-1,48,50,52,54,56,58,-1,60,-1,62,64,66,-1,-1,68,70,-1,72,-1,74,76,78,80,-1,82,-1,84,86,-1,-1,88,-1,-1,90,-1,-1,-1,-1,-1,-1,-1,-1,-1,-1,-1,-1,-1,-1,-1,-1,-1,-1,-1,-1,-1,-1,-1,-1,-1,-1,-1,-1,-1],"split_conditions":[1E0,5.1E1,1.0089E3,3.6E1,1.0101E3,1.007E3,7.7E1,1E0,1E0,1E0,1E0,3.207161E0,3.479426E0,4.4E1,3.6853986E0,1.0198E3,1.0017E3,1.0089E3,1.0101E3,6.7E1,6.7E1,1.0149E3,6.5E1,1.0104E3,1.0149E3,1.0168E3,-2.8217563E-2,-3.097559E-1,2.2E1,1.0046E3,1.0101E3,3.9E1,4.2E1,5.4E1,-1.9542159E-1,5.4E1,-1.6828243E-1,1.0131E3,5.5E1,5.5E1,-1.5518842E0,1.2762531E0,3.6E1,1.0131E3,1.1033839E0,1.8E1,-1.479622E-1,1.7E1,2.4E1,4.8E1,1.0084E3,-3.1720912E-1,3.9E1,-1.2030827E0,4.9E1,3.9E1,-2.7559805E-1,-1.3640913E-1,6.1E1,-1.8211135E-1,-3.583232E-1,5.3E1,-2.2961652E-1,-4.1430593E-1,-3.7312135E-1,-1.4354783E0,-2.5092024E-1,2.2452826E0,3.6488824E0,1.2463987E0,3.484113E0,-1.3219748E-1,-5.6037582E-2,7.20159E-2,4.153126E-2,1.1445286E-1,1.3050658E-1,-1.2388965E-1,-1.1566913E-1,-4.7187697E-2,-1.2762155E-1,-1.7456405E-1,-2.3893164E-1,-3.981478E-1,-2.915134E-1,-4.9953576E-2,-1.564964E-1,-2.260564E-2,-1.0456034E-1,-3.6789495E-1,-3.9688736E-1],"split_indices":[6,1,2,1,2,2,1,7,7,7,7,0,0,1,0,2,2,2,2,1,1,2,1,2,2,2,0,0,1,2,2,1,1,1,0,1,0,2,1,1,0,0,1,2,0,1,0,1,1,1,2,0,1,0,1,1,0,0,1,0,0,1,0,0,0,0,0,0,0,0,0,0,0,0,0,0,0,0,0,0,0,0,0,0,0,0,0,0,0,0,0],"split_type":[0,0,0,0,0,0,0,0,0,0,0,0,0,0,0,0,0,0,0,0,0,0,0,0,0,0,0,0,0,0,0,0,0,0,0,0,0,0,0,0,0,0,0,0,0,0,0,0,0,0,0,0,0,0,0,0,0,0,0,0,0,0,0,0,0,0,0,0,0,0,0,0,0,0,0,0,0,0,0,0,0,0,0,0,0,0,0,0,0,0,0],"sum_hessian":[2.6052E4,2.381E4,2.242E3,1.5223E4,8.587E3,7.17E2,1.525E3,5.185E3,1.0038E4,4.101E3,4.486E3,5.11E2,2.06E2,1.495E3,3E1,3.67E3,1.515E3,8.707E3,1.331E3,3.538E3,5.63E2,3.967E3,5.19E2,4.26E2,1.069E3,3.128E3,5.42E2,1.4E2,1.375E3,5.535E3,3.172E3,9.03E2,4.28E2,2.748E3,7.9E2,4.16E2,1.47E2,2.391E3,1.576E3,3.29E2,1.9E2,2.59E2,1.67E2,5.6E2,5.09E2,2.043E3,1.085E3,8.31E2,5.44E2,1.859E3,3.676E3,7.87E2,2.385E3,1.02E2,8.01E2,2.87E2,1.41E2,9.24E2,1.824E3,1.36E2,2.8E2,1.593E3,7.98E2,7.86E2,7.9E2,1.86E2,1.43E2,7.4E1,9.3E1,5.34E2,2.6E1,1.502E3,5.41E2,5.52E2,2.79E2,2.71E2,2.73E2,9.45E2,9.14E2,2.736E3,9.4E2,8.04E2,1.581E3,6.76E2,1.25E2,1.42E2,1.45E2,9.15E2,9.09E2,7.94E2,7.99E2],"tree_param":{"num_deleted":"0","num_feature":"9","num_nodes":"91","size_leaf_vector":"1"}},{"base_weights":[2.0668092E-3,8.811013E-1,-2.3077552E0,1.7607622E0,1.7289674E-1,-3.6758769E0,-1.3803314E0,1.992268E0,1.6627232E0,6.237192E-1,-1.1600204E0,-7.88023E-1,-3.481487E0,-2.1755712E0,2.1984887E0,3.8539276E-1,4.0491676E-1,2.7567476E-1,1.7100672E0,-2.7944908E-1,8.879832E-1,-3.3874854E-1,-8.9536965E-1,-8.303429E-1,-3.3292007E0,4.9390802E-1,-2.5393643E0,5.0973195E-1,2.0201917E0,1.645283E0,1.8377509E0,5.6397647E-1,1.384294E0,-1.6693325E-1,-1.9123192E-1,-6.2234753E-1,-6.7586476E-1,-3.1806278E0,-1.3480672E0,3.7010828E-1,4.3745247E-1,3.4613666E-1,3.115147E-1,3.8158935E-1,3.5371813E-1,1.0756185E0,-2.7152956E-1,3.3855617E-1,1.3060071E0,-3.437194E0,-4.9776736E-1,4.8067194E-1,-2.482673E0,1.8466412E-1,3.366366E-1,2.4588227E-1,3.0673584E-1,-6.651904E-1,-7.19926E-1,-5.245236E-1,-4.8168984E-1],"categories":[],"categories_nodes":[],"categories_segments":[],"categories_sizes":[],"default_left":[0,0,0,0,0,0,0,0,0,0,0,0,0,0,0,0,0,0,0,0,0,0,0,0,0,0,0,0,0,0,0,0,0,0,0,0,0,0,0,0,0,0,0,0,0,0,0,0,0,0,0,0,0,0,0,0,0,0,0,0,0],"id":12,"left_children":[1,3,5,7,9,11,13,15,17,19,21,-1,23,25,27,-1,-1,-1,29,-1,31,-1,33,-1,35,-1,37,-1,39,41,43,45,47,-1,-1,-1,-1,49,51,-1,-1,-1,-1,-1,-1,53,-1,-1,55,57,-1,-1,59,-1,-1,-1,-1,-1,-1,-1,-1],"loss_changes":[5.290039E4,1.1756573E4,9.107652E3,1.8772461E2,6.2838276E3,1.3528906E2,1.2191442E4,1.3730469E0,7.732617E1,4.174449E3,3.7180737E2,0E0,1.5765234E2,5.927541E3,4.348755E1,0E0,0E0,0E0,3.8914062E1,0E0,1.110564E3,0E0,5.7298584E0,0E0,4.459961E0,0E0,2.478502E3,0E0,1.0719238E1,2.2569336E1,4.8691406E0,4.114118E3,6.36958E1,0E0,0E0,0E0,0E0,3.6630273E2,4.8539956E3,0E0,0E0,0E0,0E0,0E0,0E0,3.0416724E2,0E0,0E0,3.6148438E1,1.58203125E1,0E0,0E0,2.772461E0,0E0,0E0,0E0,0E0,0E0,0E0,0E0,0E0],"parents":[2147483647,0,0,1,1,2,2,3,3,4,4,5,5,6,6,7,7,8,8,9,9,10,10,12,12,13,13,14,14,18,18,20,20,22,22,24,24,26,26,28,28,29,29,30,30,31,31,32,32,37,37,38,38,45,45,48,48,49,49,52,52],"right_children":[2,4,6,8,10,12,14,16,18,20,22,-1,24,26,28,-1,-1,-1,30,-1,32,-1,34,-1,36,-1,38,-1,40,42,44,46,48,-1,-1,-1,-1,50,52,-1,-1,-1,-1,-1,-1,54,-1,-1,56,58,-1,-1,60,-1,-1,-1,-1,-1,-1,-1,-1],"split_conditions":[1E0,1.0089E3,1.0089E3,3.46E1,3.93E1,1.0056E3,3.93E1,2.69E1,2.86E1,1.9E1,2.46E1,-7.88023E-1,2.8E1,1.9E1,2.46E1,3.8539276E-1,4.0491676E-1,2.7567476E-1,3.16E1,-2.7944908E-1,2.33E1,-3.3874854E-1,2.91E1,-8.303429E-1,2.86E1,4.9390802E-1,1.0168E3,5.0973195E-1,2.91E1,3.14E1,3.54E1,1.62E1,2.39E1,-1.6693325E-1,-1.9123192E-1,-6.2234753E-1,-6.7586476E-1,1.62E1,2.33E1,3.7010828E-1,4.3745247E-1,3.4613666E-1,3.115147E-1,3.8158935E-1,3.5371813E-1,1.0149E3,-2.7152956E-1,3.3855617E-1,2.64E1,1.46E1,-4.9776736E-1,4.8067194E-1,2.39E1,1.8466412E-1,3.366366E-1,2.4588227E-1,3.0673584E-1,-6.651904E-1,-7.19926E-1,-5.245236E-1,-4.8168984E-1],"split_indices":[8,2,2,3,3,2,3,0,0,3,0,0,0,3,0,0,0,0,0,0,0,0,0,0,0,0,2,0,0,0,0,0,0,0,0,0,0,0,0,0,0,0,0,0,0,2,0,0,0,0,0,0,0,0,0,0,0,0,0,0,0],"split_type":[0,0,0,0,0,0,0,0,0,0,0,0,0,0,0,0,0,0,0,0,0,0,0,0,0,0,0,0,0,0,0,0,0,0,0,0,0,0,0,0,0,0,0,0,0,0,0,0,0,0,0,0,0,0,0,0,0,0,0,0,0],"sum_hessian":[2.6052E4,1.8871E4,7.181E3,8.416E3,1.0455E4,2.9E3,4.281E3,2.498E3,5.918E3,7.813E3,2.642E3,1.221E3,1.679E3,3.503E3,7.78E2,8.47E2,1.651E3,8.49E2,5.069E3,9.03E2,6.91E3,8.74E2,1.768E3,3.06E2,1.373E3,2.54E2,3.249E3,2.58E2,5.2E2,3.372E3,1.697E3,4.182E3,2.728E3,8.92E2,8.76E2,2.69E2,1.104E3,2.111E3,1.138E3,2.64E2,2.56E2,1.699E3,1.673E3,8.29E2,8.68E2,3.303E3,8.79E2,5.48E2,2.18E3,1.537E3,5.74E2,2.64E2,8.74E2,2.643E3,6.6E2,1.636E3,5.44E2,9.25E2,6.12E2,2.91E2,5.83E2],"tree_param":{"num_deleted":"0","num_feature":"9","num_nodes":"61","size_leaf_vector":"1"}},{"base_weights":[1.6193425E-3,7.050203E-1,-1.8466936E0,1.4089017E0,1.3833366E-1,1.6177024E0,-2.1173487E0,1.4430702E0,2.2060485E-1,-6.504207E-1,6.66709E-1,3.5030204E-1,2.9636592E-1,-2.4391131E0,2.0053445E-1,1.4055772E0,1.5745429E0,-9.6805924E-1,2.0207413E-1,9.676617E-1,-2.2362101E-1,-2.7678094E0,-1.0682147E0,3.9085612E-1,-5.7710993E-1,1.468374E0,2.4924897E-1,3.2394418E-1,3.053629E-1,-7.164998E-1,-1.2212181E0,1.1547625E0,6.454635E-1,-3.152735E0,-2.6325085E0,-1.9872894E0,4.0817848E-1,3.23623E-1,1.4323833E0,-1.5302937E-1,-1.3358441E-1,-2.7107692E-1,-2.1728523E-1,9.749625E-1,1.2399309E0,9.6788205E-2,7.2567254E-1,-5.9414476E-1,-6.421113E-1,-3.9838758E-1,-2.7576182E0,-3.855169E-1,-4.199787E-1,2.8987607E-1,2.758113E-1,1.7762683E-1,2.1228687E-1,2.391784E-1,2.6941058E-1,1.5360276E-1,1.362878E-1,-5.742008E-1,-5.2688336E-1],"categories":[],"categories_nodes":[],"categories_segments":[],"categories_sizes":[],"default_left":[0,0,0,0,0,0,0,0,0,0,0,0,0,0,0,0,0,0,0,0,0,0,0,0,0,0,0,0,0,0,0,0,0,0,0,0,0,0,0,0,0,0,0,0,0,0,0,0,0,0,0,0,0,0,0,0,0,0,0,0,0,0,0],"id":13,"left_children":[1,3,5,7,9,11,13,15,-1,17,19,-1,-1,21,23,25,27,29,-1,31,-1,33,35,-1,-1,37,-1,-1,-1,39,41,43,45,47,49,51,-1,-1,53,-1,-1,-1,-1,55,57,-1,59,-1,-1,-1,61,-1,-1,-1,-1,-1,-1,-1,-1,-1,-1,-1,-1],"loss_changes":[3.387294E4,7.5274717E3,6.737672E3,8.637891E1,4.358059E3,6.876831E0,4.96909E3,3.5091797E1,0E0,2.2139722E3,3.364681E3,0E0,0E0,2.6331094E3,4.4057646E3,5.7183594E1,1.1298828E0,2.2342163E2,0E0,3.2231396E2,0E0,2.3741797E2,3.2416057E3,0E0,0E0,2.0452148E1,0E0,0E0,0E0,3.6694336E0,3.0247803E1,5.068799E1,2.5184265E1,3.3222656E0,2.7476172E2,1.8349609E0,0E0,0E0,1.0966797E0,0E0,0E0,0E0,0E0,7.27124E0,9.220459E0,0E0,1.9394531E0,0E0,0E0,0E0,3.326953E1,0E0,0E0,0E0,0E0,0E0,0E0,0E0,0E0,0E0,0E0,0E0,0E0],"parents":[2147483647,0,0,1,1,2,2,3,3,4,4,5,5,6,6,7,7,9,9,10,10,13,13,14,14,15,15,16,16,17,17,19,19,21,21,22,22,25,25,29,29,30,30,31,31,32,32,33,33,34,34,35,35,38,38,43,43,44,44,46,46,50,50],"right_children":[2,4,6,8,10,12,14,16,-1,18,20,-1,-1,22,24,26,28,30,-1,32,-1,34,36,-1,-1,38,-1,-1,-1,40,42,44,46,48,50,52,-1,-1,54,-1,-1,-1,-1,56,58,-1,60,-1,-1,-1,62,-1,-1,-1,-1,-1,-1,-1,-1,-1,-1,-1,-1],"split_conditions":[1E0,1.0089E3,8E-1,6.1E1,1.4E0,3.9E1,6.7E1,1.0073E3,2.2060485E-1,7.1E1,6.5E1,3.5030204E-1,2.9636592E-1,1.0168E3,7.7E1,1.0066E3,4.4E1,5.3E1,2.0207413E-1,3.9E1,-2.2362101E-1,1.0056E3,3.6E1,3.9085612E-1,-5.7710993E-1,9E-1,2.4924897E-1,3.2394418E-1,3.053629E-1,3.9E1,5.5E1,1.7E1,4.2E1,9E-1,2.4E1,1.0198E3,4.0817848E-1,3.23623E-1,5.4E1,-1.5302937E-1,-1.3358441E-1,-2.7107692E-1,-2.1728523E-1,1.4E1,3.6E1,9.6788205E-2,4.4E1,-5.9414476E-1,-6.421113E-1,-3.9838758E-1,4.4E1,-3.855169E-1,-4.199787E-1,2.8987607E-1,2.758113E-1,1.7762683E-1,2.1228687E-1,2.391784E-1,2.6941058E-1,1.5360276E-1,1.362878E-1,-5.742008E-1,-5.2688336E-1],"split_indices":[8,2,4,1,4,1,1,2,0,1,1,0,0,2,1,2,1,1,0,1,0,2,1,0,0,4,0,0,0,1,1,1,1,4,1,2,0,0,1,0,0,0,0,1,1,0,1,0,0,0,1,0,0,0,0,0,0,0,0,0,0,0,0],"split_type":[0,0,0,0,0,0,0,0,0,0,0,0,0,0,0,0,0,0,0,0,0,0,0,0,0,0,0,0,0,0,0,0,0,0,0,0,0,0,0,0,0,0,0,0,0,0,0,0,0,0,0,0,0,0,0,0,0,0,0,0,0,0,0],"sum_hessian":[2.6052E4,1.8871E4,7.181E3,8.416E3,1.0455E4,5.2E2,6.661E3,7.567E3,8.49E2,4.194E3,6.261E3,2.56E2,2.64E2,5.849E3,8.12E2,5.897E3,1.67E3,3.521E3,6.73E2,5.358E3,9.03E2,4.717E3,1.132E3,5.18E2,2.94E2,4.224E3,1.673E3,8.41E2,8.29E2,1.768E3,1.753E3,3.388E3,1.97E3,1.221E3,3.496E3,8.74E2,2.58E2,8.1E2,3.414E3,8.76E2,8.92E2,8.74E2,8.79E2,1.093E3,2.295E3,6.56E2,1.314E3,3.07E2,9.14E2,5.74E2,2.922E3,5.83E2,2.91E2,2.569E3,8.45E2,5.51E2,5.42E2,1.635E3,6.6E2,6.63E2,6.51E2,1.51E3,1.412E3],"tree_param":{"num_deleted":"0","num_feature":"9","num_nodes":"63","size_leaf_vector":"1"}},{"base_weights":[1.2874713E-3,5.6414646E-1,-1.4777262E0,1.127356E0,1.10713094E-1,1.2954034E0,-1.6943763E0,1.1546881E0,1.7653579E-1,-5.204723E-1,5.335352E-1,2.8051412E-1,2.373166E-1,-1.9518253E0,1.6020003E-1,1.1042439E0,1.2184868E0,-7.746668E-1,1.6171965E-1,7.743679E-1,-1.7894697E-1,-2.2148256E0,-8.549252E-1,3.12836E-1,-4.6207914E-1,1.0563349E0,2.592323E-1,1.2570875E0,2.2071432E-1,-5.7336205E-1,-9.772514E-1,9.2407364E-1,5.165663E-1,-2.3620708E0,-1.9786471E0,-1.5907557E0,3.268579E-1,2.226464E-1,1.9942828E-1,2.589781E-1,2.4761124E-1,-1.224582E-1,-1.0689771E-1,-2.1692288E-1,-1.7387758E-1,7.8032553E-1,9.921644E-1,7.746037E-2,5.8075655E-1,-2.1753805E0,-2.61716E0,-3.1884933E-1,-2.1547337E0,-3.2761917E-1,-2.980242E-1,1.4216568E-1,1.699075E-1,2.2321944E-1,1.9053456E-1,1.2292844E-1,1.0907131E-1,-4.7570124E-1,-4.256528E-1,-5.138291E-1,-5.5034816E-1,-3.9862284E-1,-4.4048643E-1],"categories":[],"categories_nodes":[],"categories_segments":[],"categories_sizes":[],"default_left":[0,0,0,0,0,0,0,0,0,0,0,0,0,0,0,0,0,0,0,0,0,0,0,0,0,0,0,0,0,0,0,0,0,0,0,0,0,0,0,0,0,0,0,0,0,0,0,0,0,0,0,0,0,0,0,0,0,0,0,0,0,0,0,0,0,0,0],"id":14,"left_children":[1,3,5,7,9,11,13,15,-1,17,19,-1,-1,21,23,25,27,29,-1,31,-1,33,35,-1,-1,37,-1,39,-1,41,43,45,47,49,51,53,-1,-1,-1,-1,-1,-1,-1,-1,-1,55,57,-1,59,61,63,-1,65,-1,-1,-1,-1,-1,-1,-1,-1,-1,-1,-1,-1,-1,-1],"loss_changes":[2.1689336E4,4.81937E3,4.31713E3,5.5268555E1,2.7907659E3,4.41156E0,3.1811426E3,2.3010742E1,0E0,1.4178752E3,2.1546594E3,0E0,0E0,1.6857441E3,2.8236396E3,3.758838E1,1.3392578E1,1.4307129E2,0E0,2.0634961E2,0E0,1.5940234E2,2.0778477E3,0E0,0E0,1.0327637E1,0E0,1.862793E-1,0E0,2.3497314E0,1.9369385E1,3.2397217E1,1.6129456E1,1.3245898E2,1.1962109E2,1.7275391E0,0E0,0E0,0E0,0E0,0E0,0E0,0E0,0E0,0E0,4.658325E0,1.0173828E1,0E0,1.2421875E0,1.1026367E1,8.1933594E-1,0E0,5.2001953E0,0E0,0E0,0E0,0E0,0E0,0E0,0E0,0E0,0E0,0E0,0E0,0E0,0E0,0E0],"parents":[2147483647,0,0,1,1,2,2,3,3,4,4,5,5,6,6,7,7,9,9,10,10,13,13,14,14,15,15,16,16,17,17,19,19,21,21,22,22,25,25,27,27,29,29,30,30,31,31,32,32,33,33,34,34,35,35,45,45,46,46,48,48,49,49,50,50,52,52],"right_children":[2,4,6,8,10,12,14,16,-1,18,20,-1,-1,22,24,26,28,30,-1,32,-1,34,36,-1,-1,38,-1,40,-1,42,44,46,48,50,52,54,-1,-1,-1,-1,-1,-1,-1,-1,-1,56,58,-1,60,62,64,-1,66,-1,-1,-1,-1,-1,-1,-1,-1,-1,-1,-1,-1,-1,-1],"split_conditions":[1E0,1.0089E3,8E-1,6.1E1,1.4E0,3.9E1,6.7E1,4.8E1,1.7653579E-1,7.1E1,6.5E1,2.8051412E-1,2.373166E-1,1.0168E3,7.7E1,1.0073E3,5.4E1,5.3E1,1.6171965E-1,3.9E1,-1.7894697E-1,1.0089E3,3.6E1,3.12836E-1,-4.6207914E-1,1.0023E3,2.592323E-1,1.0046E3,2.2071432E-1,3.9E1,5.5E1,1.7E1,4.2E1,1.5E0,2.4E1,2.2E1,3.268579E-1,2.226464E-1,1.9942828E-1,2.589781E-1,2.4761124E-1,-1.224582E-1,-1.0689771E-1,-2.1692288E-1,-1.7387758E-1,1.4E1,2.2E1,7.746037E-2,4.4E1,1.0046E3,1.0056E3,-3.1884933E-1,1.0113E3,-3.2761917E-1,-2.980242E-1,1.4216568E-1,1.699075E-1,2.2321944E-1,1.9053456E-1,1.2292844E-1,1.0907131E-1,-4.7570124E-1,-4.256528E-1,-5.138291E-1,-5.5034816E-1,-3.9862284E-1,-4.4048643E-1],"split_indices":[8,2,4,1,4,1,1,1,0,1,1,0,0,2,1,2,1,1,0,1,0,2,1,0,0,2,0,2,0,1,1,1,1,4,1,1,0,0,0,0,0,0,0,0,0,1,1,0,1,2,2,0,2,0,0,0,0,0,0,0,0,0,0,0,0,0,0],"split_type":[0,0,0,0,0,0,0,0,0,0,0,0,0,0,0,0,0,0,0,0,0,0,0,0,0,0,0,0,0,0,0,0,0,0,0,0,0,0,0,0,0,0,0,0,0,0,0,0,0,0,0,0,0,0,0,0,0,0,0,0,0,0,0,0,0,0,0],"sum_hessian":[2.6052E4,1.8871E4,7.181E3,8.416E3,1.0455E4,5.2E2,6.661E3,7.567E3,8.49E2,4.194E3,6.261E3,2.56E2,2.64E2,5.849E3,8.12E2,4.236E3,3.331E3,3.521E3,6.73E2,5.358E3,9.03E2,4.717E3,1.132E3,5.18E2,2.94E2,3.395E3,8.41E2,2.486E3,8.45E2,1.768E3,1.753E3,3.388E3,1.97E3,2.9E3,1.817E3,8.74E2,2.58E2,1.722E3,1.673E3,8.1E2,1.676E3,8.76E2,8.92E2,8.74E2,8.79E2,1.093E3,2.295E3,6.56E2,1.314E3,1.68E3,1.22E3,5.74E2,1.243E3,5.84E2,2.9E2,5.51E2,5.42E2,5.48E2,1.747E3,6.63E2,6.51E2,3.07E2,1.373E3,9.14E2,3.06E2,2.93E2,9.5E2],"tree_param":{"num_deleted":"0","num_feature":"9","num_nodes":"67","size_leaf_vector":"1"}},{"base_weights":[9.888832E-4,4.5142245E-1,-1.1826067E0,6.980961E-1,7.01054E-2,1.0373131E0,-1.3560374E0,-9.799424E-2,7.9648376E-1,-3.2609776E-1,5.2939916E-1,1.900317E-1,2.2462891E-1,-1.5620456E0,1.2797762E-1,4.0171683E-1,8.5264695E-1,5.439439E-1,-7.598498E-1,-8.554256E-2,8.6542255E-1,-1.2386807E0,-1.890334E0,-3.69976E-1,2.503894E-1,9.83805E-2,6.199177E-2,7.394719E-1,9.1777587E-1,8.72908E-2,1.2942365E-1,-1.4127617E-1,-1.7358716E-1,9.44776E-1,1.412702E-1,2.6173857E-1,-1.4833059E0,-1.7408417E0,-2.0945978E0,1.7820516E-1,6.5512156E-1,2.0747428E-1,8.707961E-1,2.0103435E-1,1.7662416E-1,-1.7244645E0,-1.2752421E0,-3.649344E-1,-1.6497413E0,-4.406374E-1,-4.1117498E-1,1.1404283E-1,1.4801025E-1,1.5956698E-1,1.8366285E-1,-3.3545622E-1,-3.712048E-1,-2.5895226E-1,-2.3862362E-1,-3.0853754E-1,-3.3991343E-1],"categories":[],"categories_nodes":[],"categories_segments":[],"categories_sizes":[],"default_left":[0,0,0,0,0,0,0,0,0,0,0,0,0,0,0,0,0,0,0,0,0,0,0,0,0,0,0,0,0,0,0,0,0,0,0,0,0,0,0,0,0,0,0,0,0,0,0,0,0,0,0,0,0,0,0,0,0,0,0,0,0],"id":15,"left_children":[1,3,5,7,9,11,13,-1,15,17,19,-1,-1,21,23,25,27,29,31,-1,33,35,37,-1,-1,-1,-1,39,41,-1,-1,-1,-1,43,-1,-1,45,47,49,-1,51,-1,53,-1,-1,55,57,-1,59,-1,-1,-1,-1,-1,-1,-1,-1,-1,-1,-1,-1],"loss_changes":[1.3890199E4,1.7750674E3,2.7664932E3,1.3398457E3,1.3493251E3,2.8302002E0,2.0369023E3,0E0,2.3429785E2,1.5027723E3,1.1047859E3,0E0,0E0,6.1867773E2,1.8096567E3,1.0770874E1,6.760596E1,1.4412079E1,1.474231E1,0E0,3.1420044E1,1.8402393E3,8.493848E1,0E0,0E0,0E0,0E0,4.273999E1,3.211133E1,0E0,0E0,0E0,0E0,5.416626E0,0E0,0E0,1.3287549E2,9.827148E0,6.044922E-1,0E0,1.5305542E1,0E0,1.3915283E1,0E0,0E0,4.6088867E0,7.780762E-1,0E0,1.7307129E0,0E0,0E0,0E0,0E0,0E0,0E0,0E0,0E0,0E0,0E0,0E0,0E0],"parents":[2147483647,0,0,1,1,2,2,3,3,4,4,5,5,6,6,8,8,9,9,10,10,13,13,14,14,15,15,16,16,17,17,18,18,20,20,21,21,22,22,27,27,28,28,33,33,36,36,37,37,38,38,40,40,42,42,45,45,46,46,48,48],"right_children":[2,4,6,8,10,12,14,-1,16,18,20,-1,-1,22,24,26,28,30,32,-1,34,36,38,-1,-1,-1,-1,40,42,-1,-1,-1,-1,44,-1,-1,46,48,50,-1,52,-1,54,-1,-1,56,58,-1,60,-1,-1,-1,-1,-1,-1,-1,-1,-1,-1,-1,-1],"split_conditions":[1E0,5.1E1,8E-1,8E-1,2.46E1,2.91E1,6.7E1,-9.799424E-2,1.43E1,1.62E1,5.3E1,1.900317E-1,2.2462891E-1,2.66E1,1.62E1,1.4E1,2.66E1,1.46E1,2.33E1,-8.554256E-2,6.1E1,1.1E0,1.5E0,-3.69976E-1,2.503894E-1,9.83805E-2,6.199177E-2,2.39E1,2.96E1,8.72908E-2,1.2942365E-1,-1.4127617E-1,-1.7358716E-1,2.69E1,1.412702E-1,2.6173857E-1,1.62E1,1.1E0,2.1E0,1.7820516E-1,2.6E1,2.0747428E-1,1.1E0,2.0103435E-1,1.7662416E-1,1.46E1,2.4E1,-3.649344E-1,2.86E1,-4.406374E-1,-4.1117498E-1,1.1404283E-1,1.4801025E-1,1.5956698E-1,1.8366285E-1,-3.3545622E-1,-3.712048E-1,-2.5895226E-1,-2.3862362E-1,-3.0853754E-1,-3.3991343E-1],"split_indices":[8,1,4,4,0,0,1,0,0,0,1,0,0,0,0,0,0,0,0,0,1,4,4,0,0,0,0,0,0,0,0,0,0,0,0,0,0,4,4,0,0,0,4,0,0,0,1,0,0,0,0,0,0,0,0,0,0,0,0,0,0],"split_type":[0,0,0,0,0,0,0,0,0,0,0,0,0,0,0,0,0,0,0,0,0,0,0,0,0,0,0,0,0,0,0,0,0,0,0,0,0,0,0,0,0,0,0,0,0,0,0,0,0,0,0,0,0,0,0,0,0,0,0,0,0],"sum_hessian":[2.6052E4,1.8871E4,7.181E3,1.1458E4,7.413E3,5.2E2,6.661E3,8.76E2,1.0582E4,3.98E3,3.433E3,2.64E2,2.56E2,5.849E3,8.12E2,1.319E3,9.263E3,1.324E3,2.656E3,8.92E2,2.541E3,2.949E3,2.9E3,2.94E2,5.18E2,6.63E2,6.56E2,3.388E3,5.875E3,6.51E2,6.73E2,1.782E3,8.74E2,1.692E3,8.49E2,2.58E2,2.691E3,1.68E3,1.22E3,1.208E3,2.18E3,1.651E3,4.224E3,8.47E2,8.45E2,1.243E3,1.448E3,8.65E2,8.15E2,3.06E2,9.14E2,1.094E3,1.086E3,1.673E3,2.551E3,9.25E2,3.18E2,1.158E3,2.9E2,2.69E2,5.46E2],"tree_param":{"num_deleted":"0","num_feature":"9","num_nodes":"61","size_leaf_vector":"1"}},{"base_weights":[7.474452E-4,1.4900818E-1,-1.1310663E-1,1.11597985E-1,1.8722056E-1,-9.578127E-3,-1.9011179E-1,8.642763E-2,1.290181E-1,1.6968104E-1,5.168965E-2,1.01849735E-2,-1.9897833E-2,-1.7356548E-1,-5.9366107E-2,1.47248525E-2,1.9783966E-2,2.7408538E-2,2.4966588E-2,1.8235101E-1,2.6260873E-2,-4.630949E-3,1.7259695E-2,-5.4938953E-2,-1.5803492E-1,1.7288953E-1,4.026111E-2,-2.9611196E-2,3.5316173E-2,-1.0104867E-1,-1.8643019E-1,3.375345E-2,3.5389133E-2,-9.819288E-4,-4.400524E-2,2.4354437E-3,1.1704835E-2,-2.2882758E-2,-1.7981306E-2,-2.1470124E-1,-1.8158719E-2,-7.0938827E-3,-1.0475576E-2,-4.4396445E-2,-4.0197797E-2],"categories":[],"categories_nodes":[],"categories_segments":[],"categories_sizes":[],"default_left":[0,0,0,0,0,0,0,0,0,0,0,0,0,0,0,0,0,0,0,0,0,0,0,0,0,0,0,0,0,0,0,0,0,0,0,0,0,0,0,0,0,0,0,0,0],"id":16,"left_children":[1,3,5,7,9,11,13,15,17,19,-1,21,-1,23,-1,-1,-1,-1,-1,25,-1,27,-1,-1,29,31,-1,33,35,37,39,-1,-1,-1,41,-1,-1,-1,-1,43,-1,-1,-1,-1,-1],"loss_changes":[4.397938E2,1.6157135E1,1.17484924E2,2.4973373E0,6.948456E0,1.1172516E1,1.4871277E1,3.6746025E-1,9.636688E-2,2.1611786E0,0E0,5.8136506E0,0E0,1.1451752E1,0E0,0E0,0E0,0E0,0E0,5.706482E-1,0E0,4.3079348E0,0E0,0E0,1.0251511E1,7.911682E-3,0E0,9.44139E-1,8.9125896E-1,3.043728E-1,1.1430878E1,0E0,0E0,0E0,1.1806464E-1,0E0,0E0,0E0,0E0,2.81662E-1,0E0,0E0,0E0,0E0,0E0],"parents":[2147483647,0,0,1,1,2,2,3,3,4,4,5,5,6,6,7,7,8,8,9,9,11,11,13,13,19,19,21,21,24,24,25,25,27,27,28,28,29,29,30,30,34,34,39,39],"right_children":[2,4,6,8,10,12,14,16,18,20,-1,22,-1,24,-1,-1,-1,-1,-1,26,-1,28,-1,-1,30,32,-1,34,36,38,40,-1,-1,-1,42,-1,-1,-1,-1,44,-1,-1,-1,-1,-1],"split_conditions":[1.0089E3,4.8E1,3.9E1,1.0023E3,2.98E1,2.66E1,1.0179E3,3.14E1,2.8E1,6.1E1,5.168965E-2,1.0198E3,-1.9897833E-2,4.2E1,-5.9366107E-2,1.47248525E-2,1.9783966E-2,2.7408538E-2,2.4966588E-2,2.96E1,2.6260873E-2,2.6E1,1.7259695E-2,-5.4938953E-2,5.3E1,2.69E1,4.026111E-2,1.62E1,2.64E1,1.4E1,7.7E1,3.375345E-2,3.5389133E-2,-9.819288E-4,2.43E1,2.4354437E-3,1.1704835E-2,-2.2882758E-2,-1.7981306E-2,2.29E1,-1.8158719E-2,-7.0938827E-3,-1.0475576E-2,-4.4396445E-2,-4.0197797E-2],"split_indices":[2,1,1,2,0,0,2,0,0,1,0,2,0,1,0,0,0,0,0,0,0,0,0,0,1,0,0,0,0,0,1,0,0,0,0,0,0,0,0,0,0,0,0,0,0],"split_type":[0,0,0,0,0,0,0,0,0,0,0,0,0,0,0,0,0,0,0,0,0,0,0,0,0,0,0,0,0,0,0,0,0,0,0,0,0,0,0,0,0,0,0,0,0],"sum_hessian":[2.6052E4,1.1316E4,1.4736E4,5.72E3,5.596E3,6.286E3,8.45E3,2.342E3,3.378E3,4.493E3,1.103E3,5.154E3,1.132E3,7.318E3,1.132E3,1.16E3,1.182E3,1.147E3,2.231E3,3.375E3,1.118E3,4.315E3,8.39E2,9.72E2,6.346E3,2.258E3,1.117E3,2.655E3,1.66E3,2.112E3,4.234E3,1.141E3,1.117E3,9.78E2,1.677E3,8.32E2,8.28E2,9.56E2,1.156E3,3.267E3,9.67E2,8.33E2,8.44E2,2.124E3,1.143E3],"tree_param":{"num_deleted":"0","num_feature":"9","num_nodes":"45","size_leaf_vector":"1"}},{"base_weights":[5.988265E-4,1.1923168E-1,-9.050307E-2,6.915701E-2,1.3229081E-1,-7.825325E-2,-4.750367E-2,1.1782443E-2,1.5830567E-2,1.2182382E-1,4.136104E-2,-1.31224E-1,-1.9731594E-2,1.4591263E-1,1.0371271E-1,-1.5142405E-1,-7.8533666E-4,-6.666133E-2,2.4387991E-2,1.3834131E-1,3.221611E-2,1.07441396E-1,1.9976152E-2,-1.4530879E-2,-1.6606948E-1,-8.383012E-3,-7.576746E-2,1.3812265E-2,9.33186E-3,2.700887E-2,2.8317058E-2,2.1932356E-2,2.101349E-2,-1.8311385E-2,-1.8284835E-1,-1.4387968E-2,-1.5921853E-2,-5.676517E-3,2.8262934E-2,-4.396244E-2,-3.435739E-2,1.9492636E-3,9.36696E-3],"categories":[],"categories_nodes":[],"categories_segments":[],"categories_sizes":[],"default_left":[0,0,0,0,0,0,0,0,0,0,0,0,0,0,0,0,0,0,0,0,0,0,0,0,0,0,0,0,0,0,0,0,0,0,0,0,0,0,0,0,0,0,0],"id":17,"left_children":[1,3,5,7,9,11,-1,-1,-1,13,-1,15,17,19,21,23,-1,25,27,29,-1,31,-1,-1,33,-1,35,-1,37,-1,-1,-1,-1,-1,39,-1,-1,-1,41,-1,-1,-1,-1],"loss_changes":[2.8158322E2,7.391403E0,2.6521446E1,2.3527145E-1,6.974777E0,4.217205E1,0E0,0E0,0E0,3.41922E0,0E0,1.8361847E1,1.3387539E1,3.654251E-1,5.3524017E-2,7.0976562E0,0E0,7.028227E-1,2.2411563E0,5.04303E-3,0E0,4.2152405E-4,0E0,0E0,6.479492E0,0E0,2.793312E-2,0E0,1.7814554E0,0E0,0E0,0E0,0E0,0E0,1.6958618E0,0E0,0E0,0E0,5.707418E-1,0E0,0E0,0E0,0E0],"parents":[2147483647,0,0,1,1,2,2,3,3,4,4,5,5,9,9,11,11,12,12,13,13,14,14,15,15,17,17,18,18,19,19,21,21,24,24,26,26,28,28,34,34,38,38],"right_children":[2,4,6,8,10,12,-1,-1,-1,14,-1,16,18,20,22,24,-1,26,28,30,-1,32,-1,-1,34,-1,36,-1,38,-1,-1,-1,-1,-1,40,-1,-1,-1,42,-1,-1,-1,-1],"split_conditions":[1.0089E3,1.0023E3,4.32E1,3.14E1,3.16E1,2.33E1,-4.750367E-2,1.1782443E-2,1.5830567E-2,1.0066E3,4.136104E-2,3.91E1,1.9E0,2.96E1,2.86E1,1.0101E3,-7.8533666E-4,2.6E1,2.39E1,2.69E1,3.221611E-2,2.8E1,1.9976152E-2,-1.4530879E-2,1.4E1,-8.383012E-3,2.91E1,1.3812265E-2,2.43E1,2.700887E-2,2.8317058E-2,2.1932356E-2,2.101349E-2,-1.8311385E-2,1.43E1,-1.4387968E-2,-1.5921853E-2,-5.676517E-3,2.64E1,-4.396244E-2,-3.435739E-2,1.9492636E-3,9.36696E-3],"split_indices":[2,2,3,0,0,0,0,0,0,2,0,3,4,0,0,2,0,0,0,0,0,0,0,0,0,0,0,0,0,0,0,0,0,0,0,0,0,0,0,0,0,0,0],"split_type":[0,0,0,0,0,0,0,0,0,0,0,0,0,0,0,0,0,0,0,0,0,0,0,0,0,0,0,0,0,0,0,0,0,0,0,0,0,0,0,0,0,0,0],"sum_hessian":[2.6052E4,1.1316E4,1.4736E4,2.342E3,8.974E3,1.3604E4,1.132E3,1.16E3,1.182E3,7.871E3,1.103E3,7.14E3,6.464E3,3.375E3,4.496E3,6.162E3,9.78E2,3.132E3,3.332E3,2.258E3,1.117E3,2.265E3,2.231E3,9.67E2,5.195E3,8.44E2,2.288E3,8.39E2,2.493E3,1.141E3,1.117E3,1.147E3,1.118E3,9.56E2,4.239E3,1.156E3,1.132E3,8.33E2,1.66E3,9.72E2,3.267E3,8.32E2,8.28E2],"tree_param":{"num_deleted":"0","num_feature":"9","num_nodes":"43","size_leaf_vector":"1"}},{"base_weights":[4.8075785E-4,1.935878E0,-1.1388074E0,-2.7042723E0,3.2254055E0,-3.0479276E-1,-3.1075666E0,-8.75831E0,2.4286463E1,9.122331E0,1.6079307E0,5.9433526E-1,-1.3247919E0,-1.7480023E0,-5.228026E0,2.2300563E0,-1.0847798E1,1.4449574E1,3.9270317E1,1.0929279E1,3.269467E0,2.6785626E0,-1.4592395E0,-1.4288107E0,1.0851221E0,-2.6395087E0,-1.0104401E0,-2.630858E0,-1.7313766E-3,-1.2760465E-1,-7.710503E0,1.7627678E0,5.7887775E-1,-8.934824E0,-1.3369622E1,1.9467106E1,4.164933E0,9.949074E-1,1.1410876E1,3.1710143E0,9.702927E0,-6.6028333E0,1.8446104E1,7.007919E-1,3.223595E0,-6.8496327E0,2.2805803E0,-1.9581718E0,1.7341193E0,1.6570258E-1,2.03674E0,-1.4204999E0,-4.621429E0,-1.4279767E0,-2.0250395E-1,-2.3611675E-1,-5.351547E0,-9.858647E-1,6.1335474E-1,-1.2741294E0,7.9460865E-1,-6.6864457E0,-1.0345143E1,1.8912957E0,2.931856E-1,-9.694131E0,-7.3262067E0,-1.6756353E0,-1.5555659E1,1.0063962E0,3.6008453E1,6.580789E-1,1.0638516E0,1.1392897E1,6.7958956E0,-3.2217448E0,-1.2715154E1,-3.3670063E0,3.5905827E1,4.167163E0,-2.0959985E0,3.050509E0,5.7477984E0,-4.26422E0,-8.68373E0,1.5424559E-1,1.707031E1,-3.5314353E0,-1.4461108E0,1.1553686E0,6.8870044E-1,-6.6265386E-1,1.4428989E0,5.939714E-1,2.5656374E0,-3.8720686E0,-5.013988E-1,-6.93031E-1,-5.0055594E0,-3.0467641E0,-1.0433965E0,7.3293495E-1,-1.0501357E0,-6.9250935E-1,7.6894206E-1,-9.464584E0,2.899543E-1,-1.5147735E0,-6.4181745E-1,8.587023E-1,-9.722718E-2,-2.0172966E-1,-1.479498E0,3.77413E-1,1.1103545E0,-8.319607E0,-5.2844234E0,-6.387394E0,-1.1091505E1,3.1787595E-1,4.298875E-1,-1.5478808E0,-2.327006E0,-1.3146751E0,-1.6294903E0,-3.2247674E0,-2.8146262E0,1.2340813E1,5.9848815E-1,2.1656132E0,3.225462E0,8.8818264E-1,1.4406093E0,-2.2480512E0,1.0320926E0,-2.0406568E0,-3.0842457E0,8.17273E0,3.6180494E0,7.7398837E-1,1.3305753E0,7.16887E-1,-8.240759E-1,4.7643477E-1,6.9615287E-1,8.570281E-1,2.0781803E0,-6.5193456E-1,-1.0596476E0,-7.583426E-1,-1.9527285E0,-8.454219E-1,6.3987577E-1,2.2427297E0,4.3950114E0,-8.756406E-1,-5.864181E-1,-1.4767653E-2,-3.7043235E-1,4.7117028E-1,-1.8890731E-1,1.5950531E-1,-5.979707E-1,6.101913E-1,4.399385E-3,2.2003423E-1,-2.697972E-1,6.368014E-1,2.9551724E-1,-8.465239E-1,-7.0250356E-1,3.7499282E-1,-3.774514E-1,-9.198596E-1,-1.184797E0,-4.7862044E-1,-8.6332434E-1,1.4799452E-1,-3.0410656E-1,6.695721E-1,3.960604E-2,-3.7405095E-1,4.3805423E-1,2.3443555E-2,-2.6973626E-1,8.8612765E-2,2.1961997E-1,-8.471653E-1,-1.9895579E0,1.2076898E-1,-7.9282415E-1,-4.0009433E-1,-1.4895803E-1,1.6906125E-2,-3.464478E-1,2.778729E-1,2.4574857E-2,-1.5332761E-1,1.9815752E-1,1.7847061E-2,-1.6180126E-1,-3.453878E-1,-1.9631751E-1,1.14907935E-1,-4.075054E-3,2.0179616E-1,2.7202448E-1,-1.2530514E0,-1.7330999E0,-1.2320613E0,-9.314006E-1,-1.5489377E0,-9.634372E-1,-2.3983848E0,-1.896211E0],"categories":[],"categories_nodes":[],"categories_segments":[],"categories_sizes":[],"default_left":[0,0,0,0,0,0,0,0,0,0,0,0,0,0,0,0,0,0,0,0,0,0,0,0,0,0,0,0,0,0,0,0,0,0,0,0,0,0,0,0,0,0,0,0,0,0,0,0,0,0,0,0,0,0,0,0,0,0,0,0,0,0,0,0,0,0,0,0,0,0,0,0,0,0,0,0,0,0,0,0,0,0,0,0,0,0,0,0,0,0,0,0,0,0,0,0,0,0,0,0,0,0,0,0,0,0,0,0,0,0,0,0,0,0,0,0,0,0,0,0,0,0,0,0,0,0,0,0,0,0,0,0,0,0,0,0,0,0,0,0,0,0,0,0,0,0,0,0,0,0,0,0,0,0,0,0,0,0,0,0,0,0,0,0,0,0,0,0,0,0,0,0,0,0,0,0,0,0,0,0,0,0,0,0,0,0,0,0,0,0,0,0,0,0,0,0,0,0,0,0,0,0,0,0,0,0,0,0,0,0,0,0,0,0,0],"id":18,"left_children":[1,3,5,7,9,11,13,15,17,19,21,23,25,27,29,31,33,35,37,39,41,43,45,47,49,51,53,55,57,59,61,63,-1,65,67,69,71,-1,-1,-1,73,75,77,79,81,83,85,87,89,91,93,95,97,99,101,103,105,107,109,111,113,115,